svm_type c_svc
kernel_type rbf
gamma 0.000244141
nr_class 2
total_sv 122
rho -0.374793
label 1 0
probA -5.29512
probB -0.531244
nr_sv 60 62
SV
0.4876155136033972 4:0.020141453 6:0.63480222 10:2.2208855 14:3.3369567 15:0.76932436 19:4.1357217 28:0.26267165 38:1.8196685 44:3.1049724 54:2.5904264 57:0.50798684 58:0.77908874 60:0.80437446 65:2.365077 68:3.498811 73:1.2832077 77:0.6978659 84:0.75231475 86:0.081796445 89:1.4528862 102:0.82138312 115:0.48019645 121:1.5291238 122:1.1743623 125:3.1783926 127:0.20026869 133:0.57247996 138:1.5795546 143:2.0119159 148:2.0678239 157:2.1237068 160:0.088112772 167:0.25742099 170:2.2071254 172:0.54910982 179:0.37109703 180:0.79937255 185:0.005019635 196:0.098109245 197:2.9806738 199:0.68756759 200:5.9802995 209:1.4526651 210:4.9119077 216:2.8386321 217:4.7033997 221:1.5552307 222:0.55327326 223:0.011228949 228:1.0517752 234:2.4411399 235:0.47038728 240:3.2019954 242:0.94618565 244:1.4967875 247:6.0204535 252:0.26682597 254:1.3813474 255:3.2645578 258:2.4788349 262:2.4114294 272:2.3499625 277:3.7419715 289:3.6900043 290:0.45949289 292:2.4029391 293:0.7580235 297:4.5243702 299:0.59125066 301:1.1871542 302:0.094474599 303:1.3829727 306:2.5571027 321:1.8624151 324:4.0428514 333:1.6706171 339:0.21610999 341:0.52160281 342:1.0370886 345:1.9390957 348:1.7584211 349:0.39302099 350:0.48778963 351:0.42427975 359:3.6504562 365:0.54364431 368:0.46386176 370:0.720698 371:1.2722483 372:0.29619169 374:0.062438838 378:2.8763089 390:1.3649347 401:1.4792795 408:0.41951811 412:1.321909 420:1.0462935 423:0.086919069 424:2.0382578 432:4.4272437 435:0.48415443 442:4.4980822 445:0.402143 447:2.4250317 452:0.93178326 455:0.10343322 456:2.3591452 459:0.8666966 481:3.74717 484:2.9640865 487:4.2602468 491:0.16200593 493:0.56993181 495:0.18355247 498:1.0648948 505:0.44196159 508:3.5720592 513:1.0432904 521:0.97444022 524:2.7286608 530:2.7581306 544:0.86793655 545:0.56601244 546:1.7412848 548:3.2832255 555:2.8112936 559:2.1000748 567:2.3423531 583:2.7559719 586:1.4734706 588:1.1146041 592:2.8319051 601:4.486846 602:0.61778164 603:1.4317311 605:0.10073772 614:0.39649183 626:0.30452847 628:0.52798861 633:1.7455105 635:4.3498921 636:1.2621155 638:0.86747855 642:0.40828842 647:2.2178242 653:0.70582706 657:5.1885791 659:0.3164773 662:3.0552619 664:0.21215084 669:1.3605806 670:2.6209679 674:1.2101357 677:3.323946 679:2.192101 681:3.3433807 684:2.4742317 687:1.0233996 688:0.55802828 696:1.3952851 698:0.42327031 704:1.2719154 705:4.0581555 706:3.0958781 711:1.0830275 712:2.1539702 718:2.2130401 721:1.0536541 722:0.41585112 726:0.26376715 728:0.47924966 741:0.12459552 751:0.21115161 755:0.4502933 757:1.1714437 759:1.4542532 771:2.6166444 773:0.3961128 775:0.78789294 777:0.03201437 780:0.066668317 782:1.585233 785:2.0593066 788:1.658187 789:0.96008766 795:0.22493443 798:1.7180772 807:0.88633239 812:1.0016481 817:1.4766959 820:4.3696208 823:0.8160497 834:2.1041522 835:4.9333963 845:0.83590078 848:3.0630126 849:0.82909918 857:3.157573 863:1.5328045 865:2.3493383 866:0.66649926 867:2.2679853 871:1.0273091 872:0.13651896 876:1.4281621 887:0.19002858 892:0.75765055 902:0.17898135 908:4.7559066 915:4.2216024 920:0.50302029 921:1.4753935 922:0.59195977 931:0.41185787 932:1.1259834 943:2.2286358 945:3.0822964 957:0.080895752 959:0.58767474 971:1.8927557 974:6.3971124 975:1.0915629 976:2.1014285 979:2.4897318 987:4.0156236 988:0.99455285 992:0.23131464 999:0.78070164 1001:0.34240395 1004:0.21942446 1014:0.60927665 1021:0.14093706 1022:2.795001 1032:0.49686432 1043:3.5443492 1047:1.6961061 1054:1.9292514 1059:0.08562912 1063:0.64296901 1064:1.8542068 1070:0.17195278 1077:0.52175862 1081:1.5158916 1082:1.2650776 1084:2.0673161 1095:1.328691 1096:5.1574197 1110:3.5424557 1111:0.71442986 1113:0.90076542 1125:0.78232056 1135:2.7247992 1138:3.8643723 1147:1.313019 1150:2.3982022 1153:1.3879873 1165:5.3328419 1170:3.6517751 1176:3.8267391 1180:1.3852297 1183:0.77339864 1184:0.88038725 1187:3.6893504 1188:4.4434495 1189:0.36382657 1200:4.4652643 1203:1.2794793 1204:1.1799507 1206:1.0346028 1208:2.4670203 1216:0.743783 1217:1.0277907 1219:0.3043628 1220:1.5380751 1223:5.7725372 1225:0.49939716 1226:3.5145311 1235:1.8006619 1236:0.7743156 1240:0.62619781 1242:0.79191238 1243:0.78835458 1246:0.052903771 1251:0.52275026 1252:0.22821455 1253:0.68048537 1264:0.36503676 1268:1.3820754 1269:1.0129604 1272:0.58743757 1285:1.3632784 1286:5.0702057 1292:0.68935823 1295:3.478833 1297:1.0197349 1302:0.51378047 1304:4.0844941 1305:0.98327363 1306:1.5155371 1308:1.8301609 1310:1.9962902 1313:1.8895595 1314:1.5175686 1319:2.0779927 1332:1.2756033 1335:0.49097371 1336:3.3215575 1337:0.39490932 1338:1.4718587 1341:2.5729094 1342:0.86797535 1345:2.9771776 1346:0.79687369 1349:0.73070133 1353:0.067230254 1357:1.0391341 1359:1.9284022 1360:0.19974098 1364:0.95081651 1366:3.8096566 1368:4.8503714 1369:0.52212846 1372:1.9822097 1376:0.071907088 1380:0.36300874 1386:0.38522777 1392:3.0738518 1393:0.0249542 1395:0.79233962 1406:3.3885977 1407:1.1996835 1409:0.78098619 1410:0.37373018 1417:0.86198825 1429:0.46813124 1430:2.4847109 1440:1.1628971 1444:2.0846434 1451:4.2455902 1454:1.5558445 1456:1.6989765 1459:1.2301052 1465:0.2114154 1466:0.36093673 1469:1.701628 1472:1.5276744 1476:0.7589134 1479:0.57215381 1483:1.273061 1484:5.6989532 1488:0.77344799 1489:1.6747575 1490:1.7992082 1497:5.0912504 1506:0.41473395 1511:0.39171985 1513:0.39682293 1523:1.0766249 1526:0.51989919 1541:0.44520515 1544:2.2126954 1545:1.0737703 1546:2.1652777 1550:2.4146471 1555:1.2097416 1557:0.089342684 1560:0.75373948 1565:1.2506686 1573:2.4432118 1574:1.5182644 1577:0.96471536 1580:2.6241932 1582:0.82537401 1585:3.906235 1588:0.78348935 1590:1.2604361 1592:3.8747382 1596:2.1207259 1604:3.886075 1605:1.9375842 1610:2.471036 1612:0.27990705 1618:0.14077733 1619:0.99321806 1622:0.93284374 1624:2.2946944 1628:0.98278373 1638:0.24492693 1645:0.040785372 1648:1.252022 1653:2.1916623 1654:0.51495135 1661:8.0870419 1665:1.3384382 1675:3.5858281 1677:1.3478458 1678:0.73202264 1679:1.0832028 1683:0.68593299 1697:2.9070733 1707:0.75314754 1708:0.8268488 1709:0.62233281 1711:3.0461202 1720:5.3075109 1722:0.35668379 1726:3.4358187 1730:0.095977336 1732:0.19615662 1738:2.3220515 1753:0.77219778 1762:1.2454973 1766:1.5002685 1767:0.38425732 1773:1.0354486 1775:0.6152994 1777:0.51105464 1778:2.3911014 1780:0.76343453 1792:1.102554 1795:2.2767634 1799:1.1080432 1804:0.85603046 1806:0.70136857 1813:3.4553077 1832:1.2189504 1837:0.85997581 1841:0.5994699 1842:1.0599052 1843:3.0190153 1846:3.8557534 1849:0.019951582 1854:1.9208379 1857:2.7378681 1860:1.6867051 1863:3.8483772 1879:2.886858 1885:0.32636034 1890:0.24897322 1896:0.72716826 1901:0.55824268 1904:1.9089231 1908:0.56793886 1917:1.1753267 1921:3.40133 1928:3.8742368 1938:2.3461487 1943:1.3131065 1956:1.5188897 1958:0.64353502 1959:0.938182 1960:0.34504521 1970:0.48408684 1972:1.2239656 1974:2.9535811 1975:1.0041481 1990:0.72449863 1993:0.41743606 1995:0.82705617 2003:1.2832258 2004:3.0140979 2016:0.099241436 2022:1.1996452 2030:1.0085897 2031:2.5344734 2038:0.68265867 2045:1.9055108 2048:0.86283606 2053:3.4235508 2054:0.33851248 2057:1.9978081 2058:1.1554855 2065:2.1223795 2068:0.72165293 2070:2.3553271 2071:0.088459954 2075:0.70419008 2086:1.4494269 2091:2.5383439 2094:1.6770302 2099:0.450748 2101:0.26496425 2103:0.80595803 2107:0.087998033 2108:0.43476495 2110:1.1614491 2116:0.15258279 2117:0.058593154 2121:0.1071155 2137:1.6267594 2144:2.6249795 2149:0.95566422 2154:0.92193907 2162:1.1815891 2168:0.94321328 2172:0.59533811 2184:1.1254623 2188:0.036739975 2189:3.5117452 2190:1.763098 2191:1.5074773 2194:1.3392543 2200:1.9038466 2202:0.034210682 2211:0.94215083 2213:0.10122508 2214:1.7309248 2215:0.17082608 2218:0.35790068 2222:0.8868801 2223:1.6045959 2226:2.4536419 2236:1.3465918 2242:0.95903903 2243:0.049408466 2253:0.89572084 2257:1.0811663 2259:1.7397695 2262:1.989116 2265:0.50463074 2269:1.3969185 2271:6.9422655 2273:0.11398692 2284:0.058698721 2285:0.68259335 2290:3.1727865 2302:1.7186425 2311:3.4802086 2314:2.0747561 2315:3.2469895 2320:0.64063007 2327:3.3046474 2328:0.45327231 2329:2.3992114 2336:0.13849512 2337:0.47261921 2343:3.4081686 2344:0.64675856 2348:0.76413977 2351:0.43818855 2355:2.3640928 2360:2.0337813 2374:0.21935916 2376:0.92864209 2383:1.3031638 2393:5.2201352 2400:0.88516062 2404:1.4388766 2416:1.2592039 2425:2.5377479 2428:1.1974902 2434:2.4653175 2435:3.1942291 2439:3.1860983 2440:5.1333623 2444:3.6922102 2453:0.71217716 2457:2.2796144 2459:0.67425251 2464:1.9710219 2466:1.0560451 2471:1.258007 2477:0.55427068 2485:0.56599367 2486:0.073666304 2487:0.58575976 2488:2.304765 2489:0.31065866 2493:0.60888386 2497:0.74839926 2501:0.8130638 2505:0.47943717 2506:0.25624204 2507:4.9429159 2509:0.43335757 2510:0.74219459 2520:1.7232159 2521:0.058955237 2526:2.874249 2528:2.9954126 2529:2.0578935 2534:2.3098202 2537:0.010327786 2542:1.7897092 2558:2.3781242 2559:0.23428649 2560:2.3021011 2563:2.2148435 2572:0.71770871 2574:3.600014 2577:2.7226789 2589:0.78896129 2594:1.5161994 2598:1.1670179 2602:0.72719085 2603:0.58846176 2604:1.3481215 2613:0.72820938 2614:2.7871983 2623:0.6488086 2625:2.9957061 2626:2.2043972 2627:0.36414632 2629:2.4294677 2633:0.25309938 2636:0.61233056 2637:0.74001133 2639:1.7505438 2646:3.3483679 2649:0.46442375 2657:4.0454717 2659:0.067817971 2678:0.93904531 2685:0.41007766 2688:0.040502608 2691:0.79053622 2692:0.47888505 2693:1.8222152 2701:1.3874179 2704:1.4036244 2708:1.5246981 2715:0.63769317 2719:1.6241965 2720:0.046614081 2726:2.0743361 2727:2.3055868 2740:0.54114801 2743:1.2561057 2745:0.73538691 2750:0.00073838234 2758:0.35022676 2763:1.5901297 2766:0.77448976 2773:0.053301528 2777:2.6904407 2779:2.8461869 2784:0.34600842 2786:2.2117784 2787:3.0020516 2788:0.7011981 2792:3.1156154 2807:0.96436012 2808:0.26835164 2811:1.5897837 2814:4.2640152 2816:3.6517386 2819:1.5995922 2824:2.2875953 2826:1.4549968 2834:3.8836207 2836:2.6932154 2841:3.7764516 2842:1.6437768 2843:0.19891074 2867:0.94726408 2870:0.48320663 2872:1.3524423 2874:3.1735194 2875:0.083857477 2882:0.32686377 2887:0.23424612 2889:0.21927631 2894:1.2120874 2895:2.7573314 2896:3.1768842 2901:1.9535569 2902:0.13099721 2903:0.44836333 2907:2.9382555 2908:2.3192832 2910:0.4333739 2912:0.20020708 2915:0.81359184 2918:2.2502675 2920:1.4093528 2928:0.64574999 2930:1.8851645 2932:2.00032 2938:0.43248197 2939:0.01323393 2940:1.1581106 2944:1.9474143 2946:2.7282948 2963:2.429059 2964:0.22085372 2967:0.47374579 2971:1.1445282 2972:0.37114906 2974:1.4475572 2977:0.073795348 2978:0.45942968 2985:0.3906039 2993:0.7577799 2994:0.37186745 2995:0.79730368 3007:1.1475472 3010:1.1436393 3015:0.45519075 3020:2.3565598 3022:3.2704222 3024:2.3262577 3032:0.18114342 3035:3.5844443 3036:2.0385778 3049:0.75704551 3050:0.81650341 3059:0.17787568 3061:1.9125911 3066:4.0563998 3075:0.36814874 3079:4.1128058 3080:0.071393698 3085:2.370754 3103:3.0423267 3105:0.58312327 3124:0.82009602 3131:0.31307361 3138:0.73480493 3144:1.6599011 3145:1.3496532 3152:1.1533461 3155:1.6663792 3159:0.62562132 3163:0.10699412 3164:2.2021484 3177:2.2895164 3181:0.31426424 3184:0.79563159 3185:0.75767881 3195:2.2152362 3199:0.21505579 3201:0.28317064 3206:1.7997808 3215:2.170666 3216:0.43562701 3217:1.9319987 3221:0.016073003 3222:0.85545361 3224:1.5822994 3228:3.1484883 3235:0.89529365 3237:0.89143145 3242:0.60241818 3247:1.9263595 3249:1.2434863 3253:1.2906404 3256:0.96160656 3257:1.0370829 3260:0.011541665 3268:1.7322938 3269:0.8203038 3275:2.9958496 3276:0.64477867 3277:0.44020137 3286:4.2794924 3287:0.98169714 3289:1.3831408 3290:1.7538269 3293:0.89201474 3294:0.46839869 3296:0.57389128 3299:0.79259944 3300:0.99647093 3302:0.098278895 3307:0.26204771 3309:0.5700227 3312:1.0247939 3321:0.83591259 3324:1.5531894 3327:0.041416019 3328:1.8333333 3335:0.55738717 3341:1.5623547 3344:0.78166211 3348:1.1691267 3349:0.1349538 3351:0.96894133 3358:1.7017199 3361:0.57291937 3364:2.2795563 3378:0.58662778 3379:3.8226318 3387:2.9168935 3394:2.7811015 3396:0.26043895 3397:0.3934491 3399:1.0936329 3400:1.8571656 3413:0.58872461 3414:0.42736349 3415:0.13547862 3424:3.9119561 3427:0.778934 3431:1.3330799 3445:2.3607163 3448:2.3092239 3460:2.6476924 3465:0.76953971 3468:0.43077469 3480:1.8909725 3491:1.7993333 3494:1.2856299 3496:0.72501707 3497:0.22941056 3503:0.052994832 3504:0.77007037 3509:0.92846715 3512:0.8876726 3513:0.43522075 3517:0.34872335 3525:0.3251695 3529:1.018059 3536:0.94972205 3537:5.5347233 3540:2.0372221 3541:1.0449054 3543:0.66679883 3548:0.9154675 3549:0.28762868 3551:1.7575455 3556:2.2939568 3576:3.1941655 3580:1.8685241 3582:3.700633 3586:0.8679204 3587:2.3154585 3588:1.222114 3599:0.33382508 3601:0.38133878 3602:1.7646757 3604:1.1110001 3608:2.5260894 3611:0.60389322 3612:1.1989862 3615:1.3030859 3621:1.5218228 3632:1.5600681 3633:0.72989637 3635:0.96345896 3636:0.99908084 3638:1.5839418 3649:1.6267236 3650:1.0445369 3653:3.2422225 3656:2.0141072 3659:0.73774904 3660:1.3531138 3666:2.1996555 3672:1.7768285 3676:0.089788705 3684:0.31273267 3685:1.5953509 3689:1.2866869 3690:1.9110246 3702:1.2885714 3703:2.7515316 3705:0.68829656 3712:0.6694597 3721:1.2115729 3729:0.73084414 3732:2.8628807 3734:1.7084217 3744:0.63015783 3746:2.8950896 3748:2.5437672 3751:0.43050632 3752:0.65929997 3753:2.4146111 3756:0.35344982 3758:0.91476357 3760:1.6725022 3766:2.6346836 3774:0.1417371 3776:1.7303562 3785:1.214178 3786:0.16929749 3793:3.4731734 3794:0.62566888 3796:1.1892986 3797:1.7710477 3802:1.0739923 3808:5.0116968 3810:0.22505629 3811:1.2761155 3814:2.7215433 3815:2.8411827 3824:1.4304264 3825:0.021944195 3837:3.8309889 3839:0.560166 3841:0.1295341 3845:2.3515806 3847:0.94539112 3848:3.7366688 3851:1.3188109 3857:1.9378082 3861:0.22437392 3865:1.0680405 3867:2.4202204 3870:0.73330492 3872:4.9068255 3875:4.2604942 3877:0.48076546 3880:1.5957305 3881:5.3313971 3889:3.0186048 3892:0.064836234 3893:7.3095112 3905:2.1679966 3910:0.061600044 3911:0.82196498 3914:0.55956662 3915:2.4186461 3923:4.3173594 3925:0.4257375 3926:2.2638831 3935:3.7870247 3941:1.4158261 3949:2.2047722 3955:1.2934359 3957:2.3236475 3968:2.2204683 3972:0.1126141 3973:0.1177147 3974:0.90840149 3978:3.7400639 3980:0.036479414 3982:3.3238211 3986:1.1661165 3993:0.70742661 3994:1.3732439 3997:0.96435249 4005:0.81922191 4010:1.3430693 4015:0.84403932 4016:5.5291862 4018:1.7458863 4019:0.61592549 4021:3.4419158 4025:2.1352496 4028:0.51145458 4038:1.8162636 4041:3.3424406 4044:0.40675807 4056:1.3595954 4058:1.1950274 4059:0.5010879 4063:0.5167222 4072:1.6340711 4073:1.1667137 4074:2.5109746 4079:1.3906922 4082:1.255734 4084:0.39872974 4085:1.3197618 4089:1.0972178 4091:0.79884076 4092:3.2327242
1 6:0.80901784 10:1.0913482 14:2.1858141 15:2.5862451 16:0.51841879 19:4.2212634 27:0.94495845 38:1.0375872 39:0.62156069 44:3.4761639 54:1.2154006 60:0.24069491 62:0.08505547 65:2.330822 68:3.1568999 72:0.27820724 73:1.2038162 77:1.2360041 80:0.91460371 84:1.5755718 89:0.35920319 102:1.371758 115:0.19320945 121:0.30669856 122:1.0640256 123:0.46414688 125:5.1226759 133:0.41132867 138:0.52559716 148:3.0617871 157:1.4441855 167:1.4765487 170:1.0294383 179:1.0065223 186:1.2217662 187:0.70936334 196:0.88977098 197:2.807251 199:0.71006978 200:8.5971155 209:1.4561772 210:6.5541124 216:3.8609347 217:5.2979479 221:1.9207445 222:0.21673365 223:1.9851719 228:0.47865665 229:1.171971 234:2.1045361 240:4.3132615 244:0.70404404 247:5.8209095 255:3.7490795 258:3.1929312 260:0.38101208 262:0.052285671 266:0.70016825 267:0.60655451 272:1.1758369 276:1.4393466 277:2.0372138 289:0.98788077 292:1.6213398 297:5.8126249 299:0.31443259 303:0.88680571 306:3.4653316 321:0.39267746 324:3.6809571 333:1.9748034 339:1.6742522 342:1.9266783 345:1.1754947 348:0.19604763 350:2.2415278 353:0.45532563 359:4.2277436 365:0.0064753294 370:1.1508243 371:0.92186129 372:1.8583647 378:2.147423 391:0.24824175 401:0.89314246 412:2.3396225 424:1.1826332 432:3.8539271 435:0.68031937 436:1.5535275 442:5.5391655 447:1.2691464 452:1.3527575 456:1.0926183 459:2.9381456 463:0.41326195 481:2.1661744 483:0.0730232 484:1.324288 487:2.2069058 491:1.176072 493:0.12901849 494:0.11490995 495:1.6280411 508:2.7217374 521:0.28835046 524:1.7243197 530:3.6228676 546:2.0167284 548:3.0240026 549:0.27013892 554:0.012633007 555:3.5576375 559:0.77148831 567:1.9214749 583:4.2897296 586:1.385473 592:3.885951 601:4.8000937 603:2.2496407 607:0.92555344 614:0.61763525 628:0.46013975 635:4.739975 636:1.4427845 638:0.72525972 642:1.8150322 647:0.22248659 653:0.88328183 657:6.198494 659:1.115847 660:0.18422917 662:3.6039793 669:0.75230026 670:2.0934308 672:0.62493688 674:1.8968379 677:2.4065673 679:2.1504147 681:4.2761259 683:0.075150222 684:1.9926771 687:0.93265867 696:0.7701934 704:0.88951886 705:6.1720042 706:2.5163841 711:0.1669814 712:1.5980511 718:3.0218799 721:1.1486444 724:1.0073185 728:1.143213 741:0.4161422 755:0.69957078 757:1.7381999 759:2.1681309 765:1.7275026 766:0.75880027 771:5.9840369 775:1.2967298 782:1.8354807 785:2.2335072 788:0.98411262 789:0.21775389 795:0.2054635 798:2.220341 803:0.37769529 804:0.11522456 820:6.4357767 823:0.29628026 834:1.2958696 835:2.657371 839:0.82057256 848:3.8647237 849:0.15419656 857:4.973115 859:0.31591263 863:1.4270983 865:4.0460463 866:1.03808 867:1.0667412 871:0.30146015 872:0.46163735 876:0.26770875 892:0.59621084 902:2.5351362 908:2.7412846 915:5.5658975 922:1.4494458 931:0.40475509 942:0.045982838 943:3.3628283 945:3.2576666 947:0.50384247 957:0.26013893 958:0.1039142 959:0.91396904 966:0.77349722 971:3.0215042 974:4.9103942 975:0.46170512 976:1.3293879 979:2.8125858 987:6.0000024 988:0.59686685 989:0.70443881 997:2.7777882 999:0.87340552 1004:0.44471568 1008:0.27078837 1010:0.41573104 1022:1.806161 1025:0.43420643 1032:0.39263675 1043:2.5234087 1047:0.23941125 1051:0.17363274 1054:1.1323136 1063:0.38172725 1064:2.8577509 1070:0.10485244 1081:1.2785776 1082:0.098635048 1084:0.86715794 1094:0.12525409 1095:2.8450978 1096:6.2420883 1100:0.13487107 1110:3.7403002 1113:0.4566651 1125:1.2144821 1130:0.83201742 1135:1.3012624 1136:1.1688981 1137:0.79181492 1138:5.6888437 1147:0.1818307 1150:1.7828125 1153:2.3233182 1165:5.3099895 1170:2.4293528 1176:4.0621347 1180:1.1342556 1183:0.90618682 1187:2.7265897 1188:4.845571 1189:2.5356503 1193:1.2335337 1200:3.3387201 1203:2.5308235 1204:2.0409439 1206:3.3175061 1208:2.3956275 1216:0.11060426 1217:1.1304238 1223:4.4610553 1226:1.7940001 1228:0.1493713 1234:0.0018910095 1236:0.24220136 1240:1.1980603 1243:0.084878147 1250:0.10272038 1252:0.90229487 1253:1.235772 1269:2.1891251 1282:0.17168799 1286:3.4367452 1295:2.4588637 1297:0.13337058 1304:2.7761762 1305:1.3728465 1306:0.37479943 1310:0.33694002 1313:1.4030359 1314:0.45556623 1319:2.8863823 1332:0.87893498 1333:0.98751247 1335:0.88031167 1336:1.1313126 1338:0.021890163 1341:4.0090599 1342:1.7028875 1345:3.4930921 1347:0.62588942 1349:0.12102778 1353:0.061547548 1357:1.0617321 1359:1.3315982 1360:1.8204629 1366:3.3326683 1368:5.0330477 1372:0.17439871 1376:0.39911246 1380:0.43845278 1392:2.1650279 1395:0.52360463 1401:0.86681819 1406:3.0337732 1409:2.0672762 1410:2.3841269 1411:0.62635052 1429:0.42219433 1430:1.517494 1432:0.039586961 1438:1.1650945 1439:0.61696261 1444:2.5086823 1448:0.64849514 1451:4.1648817 1454:2.8438125 1456:1.1408019 1465:1.0584288 1469:0.52526188 1472:0.31999323 1476:0.74519479 1478:1.3546275 1479:0.33303413 1483:0.20164561 1484:5.1730003 1485:0.071654767 1488:1.4232579 1489:1.2400641 1495:1.2248653 1497:6.538568 1498:0.093388721 1510:0.001829803 1511:2.9695928 1513:1.3901948 1519:0.14363727 1523:1.1905692 1526:0.8804158 1541:1.6282048 1544:1.6508458 1545:0.30161071 1546:3.1269336 1550:2.4365218 1556:0.085522026 1557:1.1873312 1560:0.79290438 1573:1.0238833 1574:3.3976386 1580:2.1744263 1582:0.52446407 1585:3.1650088 1587:0.078971542 1590:1.953691 1592:3.5975883 1596:2.5660336 1604:2.6145966 1605:2.030561 1610:1.989668 1612:1.0449733 1619:0.61056143 1620:0.45683688 1622:2.0623312 1624:0.055077672 1641:0.01560542 1648:0.3798584 1653:2.2482789 1654:1.1131866 1661:7.0598497 1675:4.0926876 1676:0.80169332 1677:1.4776689 1679:1.3468382 1683:0.45973 1689:1.2433704 1697:0.89225197 1708:1.2629335 1711:4.8643241 1720:6.5405335 1726:3.7556598 1727:0.57779539 1738:0.4891392 1750:0.0019594729 1752:0.67546868 1753:2.6216655 1758:0.25390527 1762:3.3039036 1766:1.0586989 1767:0.46257836 1773:0.50023961 1775:0.65197515 1777:0.32376432 1778:3.9459178 1780:0.21436897 1792:0.98101103 1795:0.70026934 1799:1.139124 1804:2.3086059 1806:2.3921387 1813:3.8238366 1832:3.1304839 1837:0.34238362 1842:0.24866001 1843:2.1588006 1846:3.4981267 1854:1.5383524 1857:2.7240319 1860:0.81939447 1863:4.9061828 1874:0.52886653 1878:0.60077429 1879:3.9961975 1890:1.5378047 1896:1.6440995 1901:0.476358 1904:1.2256585 1908:0.67454594 1918:1.4962307 1921:3.4968545 1928:5.2389975 1938:2.4940419 1943:0.67157125 1956:1.0710118 1961:0.39235801 1970:1.7768791 1974:0.26827967 1975:1.3566061 1993:0.075739518 2004:1.5881246 2015:1.1672063 2031:3.8254459 2045:1.4385612 2048:0.7227478 2049:2.6063514 2053:2.5131927 2054:0.13432759 2055:1.0819297 2057:0.21208467 2060:0.42935747 2065:1.5943421 2070:2.3105178 2075:0.77255213 2082:1.5886507 2091:3.1714246 2099:0.21566293 2101:0.61700332 2103:1.2805936 2107:0.76223654 2108:1.0784669 2116:1.1386728 2117:0.025137097 2136:0.2301518 2137:1.2059135 2144:1.781204 2149:1.088287 2151:0.11783347 2152:0.68226564 2154:1.5133073 2162:0.28080243 2188:0.92184514 2189:3.3276064 2190:0.79642493 2194:1.3545849 2195:0.34463656 2200:0.58762115 2201:0.81460392 2202:0.98964465 2217:0.071710564 2222:2.5083215 2223:4.6222358 2226:2.3412511 2236:1.8005646 2242:0.72594488 2243:0.64903033 2257:1.1810645 2259:0.56791008 2262:0.87578154 2269:2.7620056 2271:7.1962862 2288:2.7623131 2290:0.22270237 2295:0.018988192 2302:3.6409225 2311:3.523366 2314:1.9104928 2315:1.8223234 2320:2.5459676 2321:0.59799474 2327:2.1990092 2328:0.50525147 2329:0.43659493 2336:2.8516748 2338:1.0528501 2343:2.6143568 2344:0.089540958 2348:0.73734999 2353:0.045720056 2355:0.59595156 2360:5.3316455 2383:2.413425 2384:1.0127958 2393:6.329073 2400:0.49845248 2404:1.058636 2416:1.2883675 2422:0.70327127 2425:3.4400816 2428:0.2832526 2434:3.2206194 2435:3.0382321 2439:1.5999417 2440:4.1675777 2444:3.2192225 2452:0.94213164 2457:3.4782891 2459:0.37082231 2464:0.9858638 2466:0.010083511 2467:1.6211692 2471:2.2018347 2477:1.1943309 2485:1.6559358 2486:0.81749439 2487:0.037702382 2488:4.1729374 2489:0.52364737 2501:1.7599567 2506:1.5678265 2507:4.9782224 2509:0.19818544 2517:1.1814582 2518:0.25901321 2520:2.5730927 2526:4.1330867 2528:3.0246382 2529:0.73016417 2534:2.921175 2536:0.36219147 2542:1.3978175 2543:0.019239858 2558:2.8238096 2559:0.34831661 2560:0.12360388 2563:2.0203135 2568:1.7180787 2572:0.30078346 2574:2.7428367 2589:0.052545536 2594:1.6601524 2598:3.495543 2603:1.6872087 2604:1.3389359 2613:2.7566683 2614:2.085856 2625:2.7080648 2626:2.8977804 2629:1.6156878 2636:1.2567339 2637:1.3411783 2639:1.3731332 2646:1.8782482 2657:1.6574237 2659:1.6449907 2661:0.85326707 2667:0.75203538 2691:0.15227878 2692:2.5283351 2693:0.48787814 2701:0.94162655 2704:1.8944969 2715:2.0793996 2719:0.9534893 2726:0.51676989 2727:0.30079773 2754:0.58482409 2758:0.57134944 2761:0.18709387 2763:4.3200994 2765:1.2483506 2766:0.79105365 2773:0.38899818 2777:2.4666932 2779:0.70038474 2786:2.7622075 2787:3.0572402 2788:0.45312861 2792:2.0642564 2811:1.2940496 2814:2.688417 2816:3.3492904 2817:0.91455394 2819:2.195338 2824:0.88020122 2826:1.9790201 2834:2.4233494 2836:1.3193848 2841:3.5847092 2865:0.99096465 2867:1.7109783 2870:1.1364276 2872:0.48436648 2874:3.6062856 2879:0.34370989 2881:0.18078876 2882:1.2331138 2884:0.73839813 2885:0.57348633 2887:0.24129239 2889:0.29387212 2891:0.66421694 2894:1.7985029 2895:2.0001867 2896:2.68046 2903:0.13221711 2907:3.4573154 2908:2.1503267 2910:0.12689623 2916:0.58302695 2917:1.5304995 2918:2.4245548 2920:1.2586287 2928:0.86392832 2930:0.41385558 2932:4.2950635 2940:0.12524815 2941:0.11051288 2944:1.9690168 2946:2.7123289 2950:0.96007252 2956:0.73441613 2957:0.6260528 2963:2.2222524 2966:0.62267292 2971:1.5680032 2974:0.37834111 2976:0.49896687 2977:1.2953111 2993:1.0176842 2994:0.30203655 2995:0.98571503 2996:0.082193434 3010:0.70846236 3015:2.1798229 3020:1.6574092 3022:2.0447264 3024:1.2820026 3032:0.70093238 3035:3.5222998 3036:1.251615 3044:0.1953354 3053:0.078575894 3059:0.52360666 3061:0.77334583 3066:3.0501761 3070:0.30225563 3079:3.6068885 3085:0.098443061 3091:0.20515469 3103:1.0454773 3105:0.49498954 3124:1.7052126 3144:3.3549871 3145:1.0467277 3152:1.3967853 3155:1.6355391 3159:0.01141879 3164:1.67574 3166:0.068478264 3177:0.96860111 3182:0.43514034 3184:0.37801608 3185:1.6861559 3195:2.400928 3196:1.1656284 3201:1.2192965 3206:2.0435729 3215:2.3615978 3217:0.47330463 3224:0.99520802 3228:3.1067762 3236:0.39066246 3237:0.87475568 3247:0.50597483 3249:0.6496821 3251:0.69637418 3256:1.2937692 3257:2.3462055 3260:1.5219096 3267:0.25781745 3268:1.2848375 3269:0.46693027 3275:0.25959396 3276:1.9484302 3282:0.41830742 3286:4.9735184 3289:1.7420256 3293:2.024091 3294:1.0476336 3296:0.83843964 3299:1.5160389 3300:0.95533079 3302:0.96664178 3309:0.13212155 3312:1.0101302 3321:0.70220476 3322:0.082971036 3324:1.6454588 3327:1.0502634 3348:0.72888231 3349:0.35723481 3351:1.6932145 3361:1.7390554 3364:1.1899744 3371:1.089819 3379:3.2151203 3387:3.1900904 3390:0.6397748 3394:6.1206141 3397:0.85613322 3399:1.4466929 3400:0.79150462 3413:1.896149 3414:0.0079448223 3424:3.8071749 3427:0.22323847 3431:0.78435004 3432:1.6617146 3436:1.0162866 3445:1.9867667 3448:0.82022452 3460:2.016124 3475:1.9112761 3476:0.27302688 3480:3.3116748 3482:1.8055105 3491:2.6485767 3494:3.4018512 3497:1.3598517 3504:1.1156712 3512:1.1078966 3525:0.63072771 3529:0.49373579 3530:0.78237343 3536:0.83846641 3537:4.2880802 3539:0.98155922 3540:1.3837479 3543:0.95468557 3548:0.34572846 3549:1.8975515 3551:2.4538207 3556:2.6073449 3561:0.25610298 3573:0.47208896 3576:2.1305265 3580:1.1411034 3582:3.3800747 3586:1.3989149 3587:1.824578 3588:4.4299755 3599:0.54326618 3602:0.090548396 3604:1.4527769 3606:0.47352499 3608:4.9280205 3611:1.158902 3612:1.7337539 3615:1.8683338 3617:0.058634955 3632:3.0001316 3635:0.53677654 3636:0.5462231 3640:0.13240913 3643:0.20685291 3649:0.76125062 3653:3.471632 3656:1.3206118 3659:0.98919189 3666:2.7039318 3667:0.73471469 3672:3.5706499 3684:0.049148306 3685:1.4160652 3689:1.2047507 3690:2.3582284 3695:0.42421022 3696:0.049461842 3700:1.2816428 3702:0.11447011 3703:2.3331275 3705:0.86634076 3712:0.13417494 3721:1.5713012 3722:0.097902775 3729:1.2241733 3732:0.96308941 3734:0.25480735 3746:2.4176865 3748:2.4666212 3752:3.0914345 3753:1.255389 3758:1.1015811 3760:4.5471253 3766:0.45084202 3785:0.53370428 3793:5.8401508 3794:1.3304991 3796:0.69422483 3797:1.538046 3808:4.9531326 3810:0.38695496 3811:1.6472949 3814:3.5175879 3815:3.0992684 3824:1.5490949 3837:4.316648 3845:0.95566154 3847:0.89217424 3848:3.7528579 3851:3.9116154 3865:0.52849275 3867:0.96395451 3870:0.92208552 3871:0.52539283 3872:5.5648851 3875:4.4102149 3880:1.1872933 3881:4.2858276 3889:1.1004856 3892:0.65348768 3893:7.8750057 3905:2.9087179 3910:0.0040985644 3913:0.13343334 3914:1.1035267 3915:2.7352622 3920:0.066789001 3923:4.7221203 3925:0.041576058 3926:3.1802466 3935:3.3905931 3942:0.14569658 3949:2.3600421 3956:0.024581738 3957:2.5117519 3968:3.7163863 3974:1.6391397 3975:1.3629394 3978:1.9135867 3980:0.6994369 3982:5.9362459 3985:1.6468465 3986:1.2721796 3993:1.7632535 4003:0.59382939 4005:0.21360528 4010:3.5783043 4013:0.013309106 4016:6.0535955 4018:0.96658581 4021:2.0313962 4025:2.3527775 4028:0.42067742 4036:1.5407827 4038:1.722536 4041:2.4851327 4044:0.44294232 4045:2.0386901 4056:1.7292818 4058:1.8924398 4059:3.3359547 4067:0.3022114 4069:0.2886222 4073:0.33310762 4074:2.6662769 4080:1.8781549 4082:0.17712609 4088:0.082690269 4089:1.2853527 4091:0.91248417 4092:2.9655004
1 6:0.97561365 10:3.0174148 14:4.0527101 18:0.33625516 19:2.1258209 27:1.2020264 36:0.65396333 38:1.1393005 44:3.5157404 54:0.29175591 60:0.35905886 65:2.1979723 68:2.0912154 80:1.104531 84:0.79002631 89:1.151557 121:0.10256736 122:1.9914584 123:0.83711743 125:4.3295164 133:0.96643847 138:0.57930481 140:0.016962834 143:2.0784087 148:3.4965219 157:0.21118888 161:0.40544656 166:2.7746594 167:0.92013097 170:2.0370753 179:0.28275794 180:2.0073488 181:0.0081036091 196:0.30345586 197:3.1861801 199:1.2236955 200:6.9809051 209:0.9311583 210:5.6702762 216:3.4857974 217:6.4071264 221:1.442917 234:2.2253931 235:0.23984787 240:3.7195253 244:2.0560331 247:5.6526518 255:2.2224216 258:1.6211431 262:0.045652807 272:2.6638598 277:4.0801015 289:1.4407754 290:0.7463116 292:1.1598165 297:4.5328598 301:1.8015202 303:1.3401891 306:3.2230408 314:0.32205209 321:0.94806737 324:4.1963038 333:1.5293598 339:1.7543191 345:1.5600066 348:1.4169899 350:1.4659451 359:3.9185286 371:2.464669 372:0.12983134 375:0.58693826 378:1.6037509 401:0.8563574 408:0.042050719 412:0.21746597 420:2.0483632 424:0.74648666 432:3.1843777 436:0.2201591 442:5.3560953 447:2.0227928 453:0.6946578 456:0.36722299 459:2.2947431 481:2.9496822 484:2.610569 487:2.3242202 491:0.12984374 493:0.017825752 496:0.93260211 505:1.2363653 508:1.0890747 513:0.96847641 515:0.27163711 524:3.7706051 530:4.0281653 545:0.61774039 546:2.2032733 548:3.3212042 555:0.29645914 559:2.2380908 565:0.31768173 567:1.5125064 569:0.4791722 583:2.6860998 586:2.1291037 588:1.563724 592:3.1964185 601:4.0482049 602:1.2043004 603:2.1591961 635:4.3603582 636:2.1605496 638:0.78211069 643:0.62678033 644:0.33093083 653:0.34569532 657:5.5467849 659:1.0939543 662:2.9342813 669:0.35412306 670:3.6432197 674:1.3549988 677:3.7610965 679:2.0951421 681:4.1136208 684:2.5169413 687:0.59640157 698:1.1838311 704:1.2306783 705:3.7897718 706:2.8626385 711:3.4577329 712:2.6555889 718:2.4127617 721:2.8140645 735:0.20098676 741:1.1229448 752:0.15333091 755:1.6011654 757:1.6348505 759:2.0796552 765:1.3407228 771:2.7261713 782:1.3538618 785:1.3173175 788:0.98828101 789:0.43663239 795:0.22494328 798:1.1308419 817:1.3345296 820:5.556191 823:0.55759639 832:0.056706339 834:3.0101938 835:4.8998175 848:5.2007947 857:4.3057132 863:0.057659209 865:2.974165 867:2.9898164 871:0.81015235 872:0.96372855 876:2.1982722 902:0.28312561 908:3.4394088 915:3.4228995 920:0.016086936 931:0.81199551 934:0.25254542 942:0.086910129 943:2.4350655 945:1.527732 947:0.0062484145 959:0.31599036 966:0.66299522 969:0.56160372 971:1.2806405 974:5.1962628 979:1.9059854 987:3.1446192 988:0.77670658 989:0.2416812 999:1.1033556 1004:0.14530337 1022:2.6406183 1032:1.1508167 1043:1.2819642 1047:3.7250426 1054:1.2755809 1063:1.2994306 1064:2.101078 1070:0.31944987 1081:1.1067562 1082:0.52942622 1084:2.8608093 1094:1.8859529 1095:1.9908497 1096:6.1047482 1102:0.31990403 1110:2.6792421 1111:0.92922628 1113:0.41686741 1123:0.81204176 1125:0.88500023 1135:1.4928393 1136:0.33082294 1138:3.4094601 1147:1.8491569 1150:0.71406639 1153:3.2199161 1165:5.5967073 1170:1.7404616 1176:4.4895606 1183:1.176165 1184:0.72511137 1185:0.42338023 1187:1.4629023 1188:5.9770832 1189:2.0427296 1200:2.8008215 1203:3.1543794 1204:0.2760362 1206:2.3343143 1208:2.3717732 1217:1.4335089 1223:4.3647914 1226:1.9388256 1228:0.51022393 1235:2.1718631 1240:0.75952697 1242:0.26656651 1246:0.25060999 1252:0.60686415 1253:2.1059959 1268:0.87068617 1269:1.2614036 1285:1.7624032 1286:4.6725836 1295:3.8659012 1297:0.75863981 1302:0.44802874 1304:3.0841839 1305:2.0699294 1306:1.5661663 1308:0.60221493 1309:0.91143286 1310:0.053020567 1313:1.8103285 1314:0.70619386 1319:1.3641353 1332:1.0191572 1336:1.9097879 1337:0.6920206 1338:0.18342263 1341:1.627632 1342:1.122313 1345:3.6786187 1346:0.3088119 1349:0.44719076 1352:1.0482104 1357:1.2249691 1359:2.1997776 1360:1.9796997 1364:1.2181566 1366:2.7898812 1368:5.0681887 1372:1.7502127 1376:1.1654217 1377:0.43361944 1384:0.25400349 1392:0.12673403 1399:0.13898043 1406:3.6672852 1409:2.3778667 1410:0.54367471 1417:1.3543661 1429:0.29759413 1430:3.1960554 1432:0.36605987 1438:1.0498688 1440:0.84770167 1444:0.47151488 1450:0.54237849 1451:4.7814412 1454:2.1197469 1456:1.1832814 1465:0.13977072 1467:0.22063088 1472:1.2983932 1478:0.0060826987 1484:6.9687777 1487:0.2263068 1488:2.3951187 1489:1.1979977 1490:0.16748628 1495:1.0836138 1497:5.414011 1508:0.20542517 1511:2.3800979 1513:1.4111595 1523:1.6909373 1526:0.45386153 1544:0.9027428 1545:0.12438098 1546:3.3434577 1550:1.2975433 1554:0.16660491 1557:1.2363641 1560:0.63387626 1565:0.59848434 1568:0.027082771 1569:0.75809938 1573:0.87229979 1574:0.90385175 1577:0.55037045 1580:2.5376363 1582:1.3758848 1585:3.4500217 1586:0.092610985 1588:0.33873674 1590:2.6756613 1592:2.0341773 1596:3.3815858 1604:1.199856 1605:0.54661137 1610:1.5996116 1612:0.25675726 1618:1.0580883 1619:0.73276025 1622:1.9469637 1624:0.75279176 1628:1.1249628 1638:0.3210395 1648:1.6035149 1653:2.164732 1661:7.3070111 1665:1.0310506 1675:5.353014 1676:0.68391931 1677:3.2025087 1678:0.32690805 1679:1.1469932 1689:0.14134806 1697:1.9694022 1707:0.57889813 1708:0.58244067 1711:3.8260815 1720:6.3864183 1725:1.0659544 1726:3.3955045 1734:0.25173447 1738:0.91659975 1739:1.8261194 1756:0.052081786 1762:2.2814527 1766:2.0877745 1770:0.24551444 1773:0.33906367 1778:3.5271544 1780:0.4868958 1785:0.28455448 1792:0.32659355 1795:1.6658925 1799:0.64188612 1804:1.6897352 1806:0.18682435 1813:2.3287714 1832:0.81165123 1837:0.024100751 1841:0.20405622 1842:1.0885994 1843:1.9366925 1846:2.3637633 1854:1.1438075 1857:3.2475047 1860:1.8673426 1863:3.3776407 1878:0.320784 1879:2.4718606 1885:0.2989811 1896:1.414296 1897:0.14856321 1904:2.2708914 1918:0.15889025 1921:2.0972524 1928:4.6598673 1938:2.1775026 1943:0.4699671 1956:2.3741035 1959:1.1222836 1964:0.40594193 1970:1.9045403 1972:1.7428452 1974:1.038936 1975:0.7482245 1990:0.14866519 1995:0.43774939 2003:1.8298221 2004:2.840687 2015:1.0368178 2022:0.69918728 2029:0.05220449 2030:0.91786695 2031:3.4590943 2038:0.51303649 2043:0.20185518 2045:2.740799 2053:2.2574816 2057:0.35839626 2060:0.34410995 2065:1.6705364 2070:1.3870667 2075:0.1976866 2086:0.098840356 2091:3.6989138 2099:0.55502743 2101:3.514751 2103:0.41465393 2107:0.5276643 2108:0.10187849 2116:0.35707542 2130:0.011862785 2137:1.9764668 2144:0.9293921 2154:0.39913771 2162:0.15878931 2168:0.50429547 2172:0.92700994 2189:1.0002011 2194:1.2581317 2200:0.83852589 2211:1.4176408 2214:0.59723592 2222:1.0466036 2223:2.7281263 2226:1.7002412 2236:0.78947389 2242:0.31904191 2243:0.20504561 2249:0.0093720853 2253:1.6091051 2257:0.59323758 2259:2.4697073 2262:1.6213492 2265:0.78277671 2269:1.5673702 2271:7.4904742 2287:1.248835 2288:1.0880438 2290:2.4213545 2302:1.0845805 2311:3.0541704 2314:1.2404857 2315:1.6373659 2320:2.2923861 2327:1.3987818 2329:3.3513937 2336:1.0513732 2338:1.3462814 2343:3.9373512 2344:0.52285898 2348:0.84559649 2355:1.3790791 2360:3.1404848 2374:0.6614086 2376:0.19661552 2383:1.1240115 2393:6.3819299 2400:0.52699536 2404:1.4875648 2416:1.7331498 2422:0.18103799 2425:3.7253909 2428:1.125175 2434:1.8745413 2435:2.7548318 2439:2.6228771 2440:3.5493193 2444:4.1915336 2452:2.1466036 2457:4.744976 2464:0.164464 2471:0.32775718 2485:0.52289736 2487:0.38995337 2488:4.2083001 2489:0.92853373 2490:0.25875911 2501:1.2208234 2505:0.38462597 2507:5.6675787 2509:0.65289724 2520:3.3983967 2521:1.4148545 2526:3.0100436 2528:2.7737103 2529:1.3397782 2534:1.596102 2542:0.50031418 2552:0.34498334 2558:3.8880141 2559:0.82045972 2563:1.7064483 2568:2.1775792 2572:0.38424805 2574:3.049597 2577:1.1772047 2589:0.21877646 2592:0.57298082 2594:1.5420365 2598:1.4874899 2602:1.0944884 2603:0.97328568 2604:0.34597746 2613:0.45275366 2614:1.9480916 2619:0.70046902 2623:0.17920938 2625:2.5984247 2626:1.0090756 2627:0.2396787 2629:2.4949648 2633:0.13424371 2636:0.43400022 2637:0.84675729 2639:3.0034521 2646:1.4742813 2657:3.5465083 2661:0.056494132 2678:1.3164418 2691:1.9709538 2692:0.85559118 2693:1.1642896 2704:1.5964576 2715:0.031964198 2718:0.71546704 2719:1.7289135 2726:2.3260214 2727:2.4415929 2740:0.53272438 2763:4.0669632 2765:0.54156929 2766:1.3460774 2771:0.14760521 2773:0.68461943 2777:2.8500121 2779:0.096769542 2784:0.051439594 2786:2.820205 2787:3.3792036 2791:0.56847584 2792:2.3928764 2806:0.15851825 2808:1.661881 2811:2.0857623 2814:3.2031565 2816:2.4120879 2817:0.15546733 2819:1.4067227 2824:1.092491 2826:2.4157343 2834:3.2568598 2836:2.421917 2841:4.9216275 2842:0.24426743 2843:0.75199592 2854:2.1009471 2867:1.1002721 2870:0.81824452 2872:1.5420666 2874:3.4947267 2882:0.14917241 2887:0.57806224 2894:0.61254132 2895:2.5412307 2896:3.3552449 2899:0.030033261 2902:0.34141725 2903:0.73333281 2907:2.5724554 2908:0.76379335 2915:1.4189541 2917:0.47049189 2918:2.4680645 2920:4.2063766 2928:0.06595163 2932:1.2886536 2938:0.052633703 2940:0.62004411 2941:2.4084682 2944:1.3814105 2946:3.2435536 2956:0.37369567 2963:1.0668995 2964:1.4410187 2966:0.63113773 2967:0.40315923 2974:0.7420904 2976:0.15833545 2977:0.37024665 2994:0.12496312 2995:1.7367456 3007:0.89501166 3010:1.638312 3015:1.2117351 3020:2.0450387 3022:3.4336011 3024:1.4334509 3035:4.1403584 3044:1.0362289 3049:0.4970651 3059:1.1403515 3061:0.082867831 3066:2.7030258 3075:1.1342695 3079:4.5853796 3085:0.2771382 3103:2.8470969 3105:0.72635615 3124:0.10744941 3138:0.98896539 3144:2.9738479 3145:1.6184611 3152:0.099459559 3154:1.1367185 3155:1.5749912 3159:0.1216428 3162:0.36182424 3163:0.66980517 3164:2.2614498 3177:1.9011242 3183:0.94335598 3184:0.00036036968 3185:0.1770128 3195:1.3867043 3206:2.4383411 3215:2.4930339 3217:0.45776683 3224:0.27746612 3228:2.4750752 3235:0.54034817 3242:0.13927296 3245:0.15077671 3247:0.85163212 3249:0.12493943 3253:0.5951879 3257:1.8396857 3260:0.60098708 3268:1.4139516 3269:0.13344842 3275:3.1131337 3276:0.61387956 3286:4.4056859 3287:0.4656111 3289:2.2736292 3290:0.18895096 3293:1.4098535 3294:0.55055737 3296:0.77845538 3299:0.93497288 3309:0.26944661 3312:0.65439081 3322:0.051932782 3341:2.0416296 3348:0.57155466 3351:0.73645025 3352:0.81581622 3358:0.60856169 3361:0.4522725 3364:1.9292272 3379:3.9314821 3387:2.7065418 3394:4.0418158 3397:1.0339851 3399:1.3466282 3400:1.1434225 3402:0.60805243 3413:0.69113511 3424:5.1037674 3431:1.3593525 3432:0.32831013 3436:0.084972024 3440:0.24068093 3445:1.7985156 3448:1.9305929 3475:0.21740428 3480:1.8167908 3486:0.55817127 3491:1.7428718 3494:1.1210859 3496:0.95906627 3497:0.040078431 3512:0.51169783 3513:1.1726587 3525:0.047441393 3536:2.0529423 3537:6.1159263 3539:0.785734 3540:0.94165719 3541:0.43094304 3543:0.68017566 3548:0.58791167 3549:0.44634032 3551:2.2711771 3556:0.78441632 3573:0.1089043 3576:2.8156316 3577:0.78471375 3580:1.2299378 3582:3.3878789 3584:0.25868124 3586:0.72541094 3587:1.5234826 3588:3.0102954 3591:0.33328015 3599:0.19878355 3601:0.056053869 3604:0.33707714 3606:1.3781879 3608:3.859256 3611:1.5353688 3612:1.1120352 3615:1.5961378 3629:1.3456236 3632:3.4542599 3633:0.56141073 3635:1.0322008 3636:0.17271851 3638:1.0640018 3649:2.0165715 3650:1.1101013 3653:2.4558012 3656:2.1305194 3659:0.78005379 3660:0.30368263 3666:2.798857 3672:1.7171156 3676:0.84042645 3684:0.043828905 3685:0.048147328 3689:0.8488515 3690:1.610558 3695:0.48256692 3700:0.4331556 3702:0.16228829 3703:2.885062 3705:0.81196016 3712:0.12112775 3721:2.242908 3729:1.0503659 3732:0.9379825 3734:0.35083935 3746:1.9849275 3748:2.2937953 3752:1.0419757 3753:0.65407938 3758:1.3292562 3760:2.0857885 3766:2.5220146 3771:0.097166657 3774:0.25470352 3776:0.65121317 3785:1.1911427 3793:3.7613597 3794:0.63094848 3797:2.6931734 3808:5.060267 3810:0.13244274 3814:2.3983445 3815:2.8424904 3824:1.153958 3831:0.19828196 3835:0.11262113 3837:3.4428713 3839:0.37741691 3845:1.2435709 3847:1.5368942 3848:4.4246464 3851:3.1134105 3857:1.4190321 3867:1.7063702 3870:0.43845028 3872:4.8127503 3875:5.8157911 3880:0.58717245 3881:5.7220402 3889:1.9810956 3893:8.504097 3895:0.56990254 3905:0.98617429 3910:0.023503348 3914:1.0966711 3915:2.2892771 3923:5.5289545 3926:2.7259696 3935:4.0522504 3941:0.032402277 3949:4.2124534 3955:0.62454355 3957:3.111398 3968:1.8440652 3974:0.87205601 3975:0.69174361 3978:1.1219829 3980:1.7005709 3982:4.1367936 3985:0.018397599 3993:0.045739718 3994:0.72632736 4010:0.95712173 4013:1.1528705 4015:0.41450575 4016:5.9588923 4018:2.508342 4021:2.8420789 4025:2.7467046 4028:1.0819601 4036:0.18440759 4038:1.2475873 4041:3.43802 4044:0.34526575 4045:0.67314219 4056:3.4976058 4058:1.0438523 4059:2.287318 4069:0.084701896 4072:0.25031036 4073:0.89896142 4074:1.7154857 4079:0.81621569 4080:0.85696805 4082:1.8768575 4089:0.80575728 4092:3.6402254
0.6968790676962692 10:1.6801021 14:1.2347395 19:1.7928114 28:1.1365231 36:1.604968 44:1.2753685 48:2.41359 55:3.109601 60:1.9687532 65:0.85904795 68:2.4646137 91:0.6343655 112:0.42557159 123:2.4025726 125:6.1708169 129:1.803251 133:7.3688817 138:1.1428041 140:3.1040456 143:2.6235034 147:1.2263145 148:1.6101213 157:1.0440494 159:0.1777494 166:2.108608 167:4.3341885 170:3.6907198 174:2.3247259 179:0.10589635 185:1.5364525 196:0.48455605 200:1.9191947 210:5.1887326 211:3.011384 216:1.0694424 217:7.8039937 224:2.6262832 234:1.1880038 240:1.1262578 242:2.7050731 244:4.4463859 247:3.8871617 248:1.9277917 255:0.50473875 258:1.3664875 260:1.1737561 266:1.6713941 269:0.16333891 272:0.23828802 274:1.1353287 277:3.5464733 289:1.4912987 292:1.2384176 297:0.86621469 303:0.86406279 306:4.1895471 315:1.3515528 318:0.57647127 319:0.38169149 327:0.078758121 331:2.1980932 333:2.3052039 335:4.5410676 339:1.3485918 341:0.52374452 348:1.117666 353:1.3617328 359:4.9644346 364:0.018138885 370:0.66833454 371:0.50080824 377:0.2586776 378:2.273701 381:3.9428275 384:4.0488601 401:1.3882689 418:3.4725692 420:3.4559581 424:2.6576896 428:1.4562974 431:1.3861574 432:3.9127035 442:4.3136206 444:0.29155108 445:1.8150206 455:1.3744824 473:0.98673528 479:2.3530691 481:2.0628753 487:1.3265609 491:1.0507818 492:0.23473857 496:0.45615917 509:0.68933201 513:0.64183402 514:0.032777652 515:1.7896514 521:0.50646883 524:5.4548926 526:2.8153741 528:1.3164833 530:6.1152501 535:1.6327109 545:5.7334399 548:4.6558299 559:5.6425228 563:1.2231538 578:2.1787491 583:0.63880187 586:0.60448104 592:2.283572 601:2.0301416 602:2.6683598 603:1.4670417 614:5.1303816 620:0.50124753 635:5.5852184 636:1.5805333 638:2.0591576 639:0.061917067 640:0.16836795 657:2.6682236 661:0.017392606 662:0.43411711 670:2.77 679:1.1242887 681:3.3774552 687:1.3371867 688:1.65904 698:1.6142805 704:3.1498876 705:1.961347 711:2.187367 712:1.3827695 713:0.53670353 721:1.2925204 724:0.064440325 728:1.2197099 741:1.0155094 748:0.79639006 755:3.8252263 759:0.33844313 765:2.9896226 771:1.6888756 772:1.9556582 777:2.2051234 788:1.8881278 798:0.42954093 814:2.4227772 818:0.51137424 820:2.7055697 828:1.1626372 832:7.5101852e-05 834:3.2214339 835:1.7985342 837:0.096630573 839:0.22513708 848:9.1606388 856:3.0711589 857:4.1397829 865:2.3718843 867:1.1031877 873:0.12429607 876:2.3890245 880:0.26790598 894:1.7326506 902:0.99569625 905:0.18277031 908:4.4477777 915:4.4362559 920:0.20544693 922:1.3872151 943:0.25558195 945:2.1493657 957:5.6334443 963:0.50951046 966:1.8970845 967:0.66014612 968:0.50759989 974:4.2347679 975:5.1764121 979:1.9779474 987:3.5675383 1001:2.5691216 1014:2.1537452 1032:5.4287491 1046:1.6883125 1047:8.1211452 1059:1.3838357 1064:1.1298987 1066:0.95751989 1070:3.4617813 1080:0.45931676 1084:4.0699868 1095:0.77165222 1096:4.2079468 1101:0.86781293 1103:1.831967 1110:3.1238267 1111:0.98979688 1130:1.3024683 1136:0.58173203 1138:3.2062047 1147:0.010749787 1150:1.4831746 1165:5.1777306 1167:3.4293742 1183:4.8799686 1187:4.8099418 1188:4.492485 1189:2.7640116 1200:1.5450698 1206:2.2709036 1208:1.2727735 1213:1.6990815 1216:0.33157492 1219:1.4601636 1223:3.0231214 1226:1.4205192 1234:2.2356851 1240:1.6046768 1251:0.91922206 1280:1.7789938 1286:0.80078948 1295:1.5442839 1297:1.7076163 1302:3.1259401 1305:5.5731249 1306:0.16169947 1310:3.2915111 1314:3.3388026 1317:0.43074417 1319:0.99028724 1329:0.3571195 1332:1.8880689 1333:4.2454476 1336:0.28122231 1341:4.9079609 1352:0.16851927 1355:0.067855477 1360:4.3010335 1368:2.7765713 1369:1.4126565 1372:2.4053707 1381:1.1627312 1386:1.3066944 1395:2.9557338 1397:1.7767156 1406:3.5697227 1407:0.45380938 1409:2.309252 1430:0.32690939 1444:0.57387751 1447:1.2902365 1450:1.8155928 1451:4.7595191 1465:2.9871678 1466:0.13187346 1476:0.8900708 1478:1.2008375 1484:9.7203264 1488:1.5580103 1497:1.159499 1500:1.5480142 1544:0.3829118 1550:0.28117478 1555:4.1010671 1556:2.8038993 1557:0.92688376 1569:2.4520688 1573:0.3528786 1574:1.341668 1576:0.91481996 1580:0.35486794 1582:1.0246267 1585:1.4169642 1587:2.2474563 1588:2.6945143 1590:0.70178992 1593:0.42664951 1596:3.5863061 1602:0.11819488 1610:3.054704 1614:0.4459689 1617:0.76885575 1622:0.58657461 1625:0.15074235 1628:0.098869294 1638:1.959627 1648:4.9209929 1651:0.75567603 1653:2.3898535 1661:5.8758774 1675:4.7849898 1676:2.4845424 1677:1.0424809 1678:0.78904343 1679:1.5087504 1681:0.70376265 1688:1.5842099 1689:0.011538088 1690:2.5165224 1697:0.36778694 1707:0.3734948 1708:1.7016392 1711:2.7415242 1717:0.35437238 1718:1.5228179 1720:5.0011272 1722:0.82394236 1726:6.2697587 1734:3.9545243 1739:3.8446162 1746:0.20436403 1750:0.7368716 1752:0.51553792 1755:0.17892991 1761:5.5131359 1762:2.907398 1770:1.0604351 1773:2.0110145 1775:0.243797 1780:0.12961763 1782:0.38026342 1792:0.091014549 1795:1.1307006 1799:1.7151175 1802:2.3610506 1804:2.4214494 1813:3.4052694 1815:1.2623036 1817:2.0762732 1837:0.57424909 1842:2.0409741 1844:1.6998086 1852:4.7557569 1854:4.057374 1860:3.1356156 1863:0.96942961 1864:1.3640668 1878:0.76566911 1880:2.6066828 1892:0.024163663 1905:4.1955662 1921:5.2693539 1928:0.020608753 1938:1.6162254 1953:1.1834037 1956:2.0019889 1958:0.79507881 1960:3.594698 1972:1.5394447 1974:0.8973403 1981:0.66394734 1990:1.3697745 1997:1.8827274 2003:1.7199138 2004:1.2412364 2015:2.3583598 2016:1.7174723 2018:0.89429963 2030:1.5733742 2031:1.1210148 2038:0.96663189 2045:5.127841 2049:0.1759973 2053:3.4359083 2055:0.23921859 2058:0.29101804 2065:0.21015309 2068:0.20605427 2070:2.4345231 2071:2.1801906 2091:2.7962141 2099:3.2655253 2101:1.4908828 2103:0.87892908 2107:2.1551001 2108:1.864934 2110:1.4454846 2116:2.7077439 2117:1.4882632 2128:1.3503423 2136:1.8578652 2150:1.7933867 2152:3.8742764 2154:0.60179341 2162:2.9301953 2168:1.3845276 2170:1.2879945 2177:1.0565082 2184:2.7161834 2189:3.1747971 2190:4.9761505 2195:1.923592 2199:1.3282011 2200:1.1963341 2202:0.053925246 2207:0.92448318 2211:2.5273342 2213:0.17019027 2222:1.9828012 2223:0.67861456 2236:1.1423802 2243:1.1823529 2254:0.59004557 2262:2.0055244 2271:7.355691 2274:0.047797546 2283:1.6122731 2290:1.6117342 2303:1.7240568 2311:2.6270094 2315:2.1255634 2320:1.6140926 2322:0.25500321 2328:1.5972445 2329:1.39222 2338:0.66161501 2343:4.86166 2345:1.7207161 2360:4.7076945 2372:2.8220139 2376:2.878437 2377:0.43448818 2383:4.0204453 2386:3.8249934 2393:9.0410109 2399:0.13176528 2400:0.14336933 2408:2.5026979 2414:3.3291621 2428:1.5910534 2434:2.6159773 2439:3.6562614 2440:2.1826568 2444:4.6787477 2453:0.84161538 2457:3.0856099 2467:0.15651542 2485:0.43628991 2486:1.050107 2487:0.23405862 2488:0.70546925 2490:0.50043833 2502:1.7539181 2505:5.9442978 2507:1.0453607 2509:2.5287297 2516:0.25465375 2520:4.3063521 2521:1.1449856 2526:4.0567207 2528:1.2293085 2529:2.8775411 2551:3.9401326 2558:6.6825466 2559:0.68601191 2563:2.4100871 2568:7.0142341 2571:0.80451638 2572:0.69383395 2574:2.7779071 2576:0.23161648 2577:2.4203448 2579:1.3047935 2594:0.82425153 2598:1.2561109 2604:5.1541691 2613:0.17189237 2625:1.6997902 2626:1.7806168 2627:0.78513038 2629:1.1047466 2655:1.5612843 2657:3.3909547 2667:0.16604108 2685:0.4534753 2691:5.6024952 2692:2.6894367 2693:0.51195848 2708:2.6419613 2711:3.8516045 2715:0.49552321 2718:0.3445746 2719:2.1665351 2726:2.219135 2740:0.95824045 2743:3.0328994 2752:0.1140703 2753:0.91729432 2754:2.0876944 2759:1.7237744 2765:1.1255031 2766:3.595619 2770:0.39441919 2777:2.7507772 2784:0.77010119 2787:1.458715 2808:0.79457015 2811:2.558593 2814:5.2726998 2816:2.3013413 2817:1.6379907 2819:1.5400546 2824:4.4654818 2838:0.96400356 2841:3.940639 2865:0.55136585 2867:3.5836022 2869:1.8276608 2870:0.1889741 2872:1.7740728 2874:0.43175957 2882:0.21453592 2889:0.46386313 2895:3.4287083 2896:4.8519902 2898:0.53146434 2907:4.3749342 2913:0.90348566 2914:1.9950064 2917:0.81325674 2920:5.9036002 2921:0.24347788 2928:0.049206242 2930:0.85171282 2940:0.48917863 2941:0.38243544 2944:1.3019357 2946:3.0680618 2956:4.2734485 2958:3.1964905 2964:2.1752923 2966:1.2423067 2974:0.32416791 2990:0.74304986 2994:0.087435156 2995:3.0750656 3010:4.4257617 3015:1.4971701 3020:0.27732551 3022:2.4409335 3028:1.0085036 3032:1.3066077 3043:2.3467927 3051:0.15663502 3066:6.3159661 3075:2.4649386 3079:6.4122214 3080:1.1594539 3085:2.1521716 3088:0.97637904 3105:3.9602656 3109:0.33603734 3119:2.8795176 3143:0.62416971 3144:0.5145458 3145:3.7107723 3152:1.0701349 3158:3.5179472 3159:1.1267087 3164:2.6502423 3177:1.3362321 3181:1.2545298 3183:0.45291555 3184:0.32788745 3195:0.011442915 3207:1.976982 3215:0.042385638 3216:0.13870807 3217:1.6882958 3221:0.70296705 3228:0.028188527 3236:1.7532474 3237:0.67700332 3246:0.25394347 3252:4.0130196 3256:0.88521016 3264:1.9732993 3268:0.027853757 3275:2.8644674 3276:1.4625487 3285:0.016523898 3286:7.4707417 3289:0.84025759 3293:0.5827539 3312:0.45500776 3328:0.33124754 3341:3.0685244 3348:0.099044085 3349:0.32617599 3351:1.0039923 3359:0.17420155 3364:1.3596199 3366:3.666163 3379:4.9703269 3387:1.1743939 3394:5.3263731 3399:0.73283637 3404:0.89727485 3424:6.5872788 3431:2.1351082 3445:2.9607289 3465:1.027797 3468:1.2312363 3476:1.1688871 3480:1.6124957 3482:0.42263603 3491:2.0465496 3504:2.2121935 3512:4.5176506 3536:2.7663012 3537:5.9084435 3538:0.16725594 3539:5.3795338 3540:2.2659903 3541:0.8586272 3548:0.65459973 3551:2.1278985 3552:0.76306784 3576:4.5243936 3582:3.91363 3584:0.97607958 3587:3.7463913 3588:2.1522868 3608:1.6938959 3611:3.438036 3612:2.1810956 3629:2.6284466 3631:2.5058362 3635:4.7101307 3636:1.4072347 3649:0.29941458 3650:0.95863056 3656:0.57609624 3660:2.0622108 3666:3.0783041 3670:1.1674147 3675:0.083880819 3681:3.1191046 3690:2.0580063 3695:1.3868563 3696:0.59667087 3705:1.9791341 3712:2.2780306 3722:0.42139906 3726:1.4132754 3729:3.2047968 3732:2.6307392 3737:1.3379716 3746:6.5018506 3748:0.57031733 3753:0.043088794 3762:2.5384748 3763:0.050940335 3766:0.75527906 3767:1.9670334 3771:0.070340216 3778:1.2354234 3785:2.9913163 3786:4.2243423 3793:1.986251 3794:1.8652234 3797:3.9595399 3808:7.2595382 3810:2.151969 3815:0.98163235 3819:0.060951054 3824:2.0800378 3837:0.11609927 3839:1.9912483 3847:1.8699418 3848:5.2812233 3851:2.6806674 3856:0.92497933 3865:2.0766244 3870:1.4397006 3872:1.0091909 3875:10.157098 3876:0.73158324 3880:2.99789 3881:3.9040751 3889:4.3566575 3893:5.8717976 3910:0.49300325 3915:0.31367666 3919:0.1801751 3923:1.6488221 3926:2.7105091 3935:2.6033044 3936:2.7316263 3949:2.4080169 3953:0.40618664 3957:3.6828356 3958:0.89786881 3960:2.1403034 3972:0.16127017 3978:1.7271957 3980:0.99404526 3982:3.287039 3984:3.0016062 3985:1.4964361 3993:2.1469712 3994:0.015523434 3997:0.86982846 4003:0.15236741 4012:0.18413061 4013:1.8201039 4014:1.5637472 4016:4.8342481 4021:1.0783482 4025:2.3522573 4028:2.3929572 4033:2.092201 4034:0.57018113 4036:2.9079938 4038:3.5516953 4040:2.0416002 4043:2.3902006 4045:2.6528864 4054:0.81397724 4056:1.5375843 4073:2.2582614 4074:4.1434116 4077:0.29363033 4080:2.9161956 4084:2.1748385 4086:1.8152354 4089:2.8822684 4091:0.84695399 4092:2.5597496 4094:0.92462045 4096:1.2438275
1 14:0.46736634 15:2.2571149 18:0.25126246 19:1.9487534 23:0.36135623 27:0.85122454 28:0.48486573 36:2.0656648 39:0.90842152 43:0.32400107 55:2.7700129 58:0.65563804 60:1.3480582 65:2.3236027 68:2.5417695 71:1.3861639 79:0.44341633 90:0.56033212 93:1.9429662 97:0.21018742 123:2.4756441 125:5.1840854 133:0.1308361 135:1.5758382 140:0.17437401 143:0.82999778 157:2.5552115 159:0.62218416 164:0.9947536 167:3.9377 185:2.483979 190:0.043488473 196:4.0309258 197:1.1297535 198:0.40874892 199:1.9548638 200:3.9217737 209:0.11563497 210:3.3427215 211:0.090759948 216:2.2385292 217:2.9091752 224:0.44669563 229:0.78034133 236:0.77198052 240:2.4167738 242:1.444587 244:0.63234818 247:3.2449284 254:2.9736681 255:2.0139651 258:4.7682233 260:0.16835667 266:1.6010516 267:0.74010766 272:0.82239199 277:3.6390936 278:0.031507239 297:0.53922606 299:1.8669713 303:0.59607798 306:6.2918563 310:1.0029303 314:0.49346226 321:1.9412363 326:0.15079631 333:3.3679039 335:2.4943948 340:1.0361087 341:1.4257057 344:1.6923809 348:0.25424322 353:0.69304955 359:1.7251756 366:0.0324471 370:0.012750939 371:0.45264885 374:1.2917536 377:0.55695367 378:1.8995426 379:0.25109163 381:1.7081795 397:0.39477098 399:2.0349212 403:2.4948063 418:0.4559837 424:0.061864752 428:0.2715497 432:6.1864843 439:1.0909356 442:3.7496119 444:1.3035253 456:0.20925103 459:0.13773641 462:0.39562109 468:1.7746594 473:0.1688264 477:0.36216593 479:1.0622078 481:1.1689821 485:3.4675276 487:2.0451846 491:1.4956772 492:0.3630071 493:1.6746345 496:0.3127017 497:0.75172794 505:1.1346068 508:0.046753377 509:0.52950358 514:0.61953104 517:0.050099816 520:0.1833661 521:5.3918552 524:4.8062296 530:1.3942002 534:0.43392617 535:0.11823064 545:3.4477878 546:2.2731671 548:3.2465219 555:2.3168056 559:1.1759202 566:1.1561623 567:2.8292103 572:1.6161983 579:0.95116866 583:1.706931 585:0.11622724 586:1.8755676 588:0.16193403 592:2.2453978 601:0.97112405 603:0.63341486 614:3.8695581 626:0.60319066 635:5.4081669 639:1.9051278 644:0.50965255 647:1.2802087 648:0.85408086 657:0.24859902 659:1.0300858 660:0.28099656 662:1.570346 669:2.0318518 670:2.0104623 672:0.10507599 674:0.89656091 679:1.6972601 681:0.74138659 684:0.37140015 685:0.20313247 687:3.9358487 688:1.4860303 696:0.30527246 698:0.70841503 702:0.33318302 704:1.3250846 705:4.9119883 706:1.7627039 711:0.4635866 712:1.6314054 718:2.5917096 725:0.30467394 728:2.1892138 729:2.2021105 732:1.4213408 734:0.050393343 741:0.94170499 752:1.3126612 757:1.1467662 759:2.8791285 765:1.2869368 771:3.0632534 777:0.99064529 780:0.76996797 785:3.7582667 788:1.4223853 789:2.5438025 794:0.71161926 796:0.61136353 803:3.0761344 817:0.40838718 820:3.2200613 823:0.38518402 834:0.58058476 835:0.27906758 839:1.7928665 848:4.6221895 849:0.87286258 854:0.15758371 857:2.0970814 858:1.4336102 865:2.8186784 868:0.043337733 872:0.015273482 876:0.27433401 879:1.3743378 880:0.59514499 889:1.0771961 894:1.1696789 902:0.44191462 904:0.75355041 908:5.0754967 913:1.8801287 915:2.8576903 921:2.0685132 922:0.68289316 930:0.027280033 937:0.32465854 940:0.15375921 942:0.70050001 945:2.485719 966:0.41780487 968:0.60954392 971:1.4015077 973:0.21147364 974:5.5491905 975:3.1020391 976:1.4902668 987:2.5128167 999:2.0945921 1001:2.0119665 1004:1.4290999 1010:0.28394672 1014:1.2123642 1032:3.912539 1043:1.1326563 1051:0.81822342 1059:0.14250629 1064:0.47980288 1065:3.3574195 1070:1.264854 1071:0.31845418 1080:1.7880492 1084:1.3866619 1091:0.24694565 1094:1.1505032 1095:1.3421816 1096:5.4370089 1106:0.76987779 1110:2.4254684 1111:0.177921 1113:0.52566457 1123:1.1298581 1128:0.40124816 1129:0.10439205 1130:1.0731164 1137:0.83031273 1138:2.3637686 1147:1.5620315 1150:3.6048117 1153:0.40048701 1159:0.048353285 1163:0.90655875 1165:5.997385 1168:0.24142565 1183:4.0073156 1187:4.1190677 1188:3.7801509 1189:0.8486113 1193:1.7436376 1200:4.0201559 1203:2.1292808 1205:0.27411249 1206:2.6382594 1208:2.4460096 1217:0.066984355 1219:1.1662669 1223:2.7268102 1225:0.8057068 1226:1.6402395 1227:0.72513801 1234:0.69815159 1240:4.92136 1242:0.24358535 1248:0.89771211 1253:0.08811985 1259:2.6979306 1269:1.3548703 1279:1.9809628 1280:0.2057389 1291:2.0515239 1297:0.98901522 1302:1.221624 1304:2.3797629 1305:0.91774952 1313:4.1264572 1314:1.1338151 1319:3.0457814 1329:0.2518217 1332:1.1621087 1333:0.43922359 1336:2.8239563 1341:4.6625104 1342:0.45909056 1345:1.9720762 1348:0.0096527487 1357:5.5408034 1359:1.3743727 1360:1.7147348 1368:1.3688663 1369:0.4787308 1372:1.7675472 1376:0.077481255 1378:1.7703444 1383:0.75605255 1385:2.1018589 1386:3.0831873 1392:1.3730278 1393:0.71592951 1395:1.1064024 1398:0.0027004182 1401:3.6757364 1402:0.61482751 1406:3.4128122 1407:0.75771952 1409:3.3568292 1430:1.3881569 1433:0.33540586 1444:2.1751316 1445:0.96804416 1451:2.6833735 1456:1.3590893 1464:0.70885813 1467:2.1397197 1470:0.04675414 1472:1.5225081 1473:0.32835984 1476:2.9201694 1479:0.95126891 1484:0.85684919 1489:0.89981854 1497:3.3089054 1502:0.74797249 1508:0.1233165 1511:0.67858315 1519:2.2817206 1520:0.71076262 1523:0.53709114 1526:0.74447727 1544:2.1758263 1550:0.15745041 1551:0.0963315 1555:2.5985355 1556:4.3659 1557:1.8108745 1573:1.8165177 1574:1.7011757 1576:0.12749724 1583:0.61088848 1584:0.82298911 1585:3.2654896 1588:4.0768309 1592:4.0979896 1593:0.053600267 1594:0.39746949 1596:0.66114223 1598:1.6496245 1600:2.5768676 1602:1.0353131 1604:0.61524141 1605:0.87900418 1618:0.071104556 1619:0.1928339 1622:0.98369515 1623:0.0080390871 1624:0.0024513602 1625:0.9306215 1628:3.0838718 1641:0.5381155 1648:1.7768643 1651:0.62397569 1653:1.751735 1654:1.7459872 1657:0.63981616 1661:2.7260826 1675:4.1199217 1676:1.6414313 1677:3.7649868 1678:0.68816221 1679:0.113829 1683:1.614166 1690:2.5302591 1693:0.25604886 1699:1.2897921 1701:1.9734442 1711:1.4371734 1718:0.24715695 1720:4.1623354 1726:3.9647362 1727:1.4682721 1738:0.021011978 1753:1.1467106 1761:0.50365716 1762:1.2246413 1766:0.20015225 1767:0.8236413 1774:1.4689497 1775:0.080678552 1777:0.7524929 1778:0.73886824 1780:0.31380981 1783:1.1753066 1790:0.56360453 1792:0.13257912 1795:3.0447903 1799:2.2803051 1806:1.5827924 1813:1.3431405 1817:3.2193751 1824:1.3802505 1828:0.092864484 1829:0.24950509 1832:1.9921474 1833:0.49113804 1834:0.53187054 1842:1.0510107 1846:1.1859238 1849:2.7029731 1852:1.8952734 1854:0.78750974 1863:1.7368584 1864:4.1946282 1879:0.78092766 1885:1.1944478 1887:0.29557693 1890:0.054745816 1891:2.0726018 1896:0.19367513 1897:0.3112641 1912:0.95172572 1921:3.570792 1928:0.88937926 1938:0.037853897 1943:2.3517585 1948:0.95754945 1953:0.90781152 1956:4.5008402 1972:1.7405486 1974:3.0335896 1975:1.2742544 1990:3.0497925 2003:2.8693523 2004:2.8053515 2012:1.1080941 2015:2.600781 2016:2.3997943 2019:1.4729776 2030:1.7858059 2031:3.1193175 2043:0.10458165 2049:2.317229 2055:1.9690953 2058:1.0480262 2063:1.8190851 2065:0.045694999 2070:0.42334059 2071:2.0201638 2078:3.9427061 2091:2.9146926 2094:2.0788012 2101:1.425204 2102:0.46593404 2103:1.9174544 2107:0.34220171 2108:1.2560656 2110:0.15179658 2128:0.4122774 2130:0.69853729 2137:2.7746346 2144:1.5016351 2152:0.080136687 2154:3.3759165 2162:0.5361467 2168:1.0552948 2177:4.3931952 2184:2.8315289 2187:2.316515 2189:1.9127952 2190:3.3514178 2199:1.0857818 2200:1.3422611 2202:3.1992803 2209:0.23255709 2222:0.42999458 2223:1.6742202 2225:0.98069966 2226:0.28549242 2236:1.0515877 2239:2.0776231 2249:0.00076137483 2257:0.79445827 2259:1.8375024 2262:4.6790271 2267:0.17250127 2271:2.8812068 2283:1.3959839 2285:1.7090186 2286:2.1796992 2290:1.6796074 2293:0.32903895 2302:0.57788795 2303:0.64072776 2304:0.95774186 2311:1.8302969 2314:1.3871038 2315:4.9878998 2316:2.7614784 2320:2.1804016 2322:1.1625879 2326:0.88891828 2327:2.2805572 2329:0.57777005 2333:1.8089808 2344:0.48042718 2345:0.37245271 2348:0.19617254 2355:2.6620052 2359:2.7647457 2360:5.9423442 2372:1.7197382 2374:1.4135959 2376:1.6208355 2393:0.77161133 2411:1.0460076 2414:0.67514777 2416:0.3015725 2417:0.12638578 2426:0.57813638 2428:0.34296232 2432:0.55405551 2434:0.15736844 2435:0.32206669 2439:3.1341655 2440:1.4190524 2444:4.8913603 2453:2.3374243 2457:4.3748307 2459:0.44695863 2464:0.078814 2466:0.87025595 2467:3.155472 2471:0.48207986 2477:0.30982918 2485:1.1636376 2487:0.31613424 2488:1.7967132 2489:0.053336598 2497:1.7715957 2505:3.9046328 2506:1.4759805 2507:0.78993785 2508:1.0685267 2509:0.18114881 2511:0.43043298 2514:2.0371206 2518:0.011876494 2520:3.3094695 2526:3.3382959 2528:3.0245671 2529:3.1172686 2534:1.194566 2551:1.0664117 2558:4.2330813 2559:1.2444613 2574:1.5140333 2577:2.7616024 2579:0.14595813 2585:0.66761899 2594:0.49085143 2598:0.21464917 2602:1.3137628 2608:0.44290945 2613:1.6314474 2614:0.92629665 2619:1.907434 2621:1.7721348 2625:0.19222772 2626:0.9202072 2629:1.2410841 2639:2.0467987 2645:0.072990358 2647:0.62919402 2653:0.18420583 2657:0.98521608 2659:3.197577 2667:0.7450521 2672:0.36287394 2685:1.1516688 2688:0.035995901 2690:0.57311583 2691:3.4074881 2692:2.5136926 2708:1.0505399 2711:0.67020702 2715:3.1182024 2718:0.72794777 2719:0.48994398 2720:0.44129384 2726:1.1093777 2727:3.1348658 2728:0.11802359 2738:1.8794947 2740:2.6345677 2750:3.114764 2751:0.73201621 2753:1.31374 2754:3.2383091 2759:3.3040574 2763:2.9914417 2765:1.4753308 2766:0.1223973 2775:0.76265454 2784:1.1776708 2791:1.9399861 2808:0.43763918 2811:1.2792079 2816:1.6262434 2817:0.72770375 2834:1.9334346 2836:2.3194895 2841:2.0164578 2860:2.1651144 2865:2.241061 2867:3.0538645 2869:1.5555599 2874:0.26636261 2875:0.57001954 2891:0.5393647 2894:4.9416966 2895:1.965703 2896:2.4890165 2898:0.41267484 2899:0.25335935 2907:3.3495018 2908:2.457262 2910:1.8161191 2918:1.3677225 2920:0.55672324 2921:5.361587 2925:0.44182706 2932:0.45855442 2940:0.18428081 2941:1.3258115 2946:2.7799046 2949:0.27552336 2950:0.88158798 2956:1.335835 2958:2.4912095 2963:2.2312164 2966:0.43786904 2967:1.5430043 2974:2.173655 2978:1.0727582 2979:1.0090708 2985:0.59315026 2990:1.1395903 2993:3.5571907 2995:1.6231571 3010:1.267293 3015:2.605974 3022:2.4329422 3024:2.7025437 3032:0.27720729 3035:0.87557912 3036:0.74820745 3044:0.36104414 3066:2.6823204 3067:3.4685931 3068:1.7422017 3075:2.9864726 3079:1.5876398 3080:0.80931443 3085:3.6155109 3094:0.71177024 3105:3.8415887 3107:3.6468508 3109:2.8552823 3114:0.66679907 3131:0.51029867 3138:0.75356728 3144:4.1934023 3149:0.70589185 3150:0.051004171 3152:1.2976797 3155:2.5859575 3162:1.6495121 3163:0.20154138 3164:0.60816479 3167:1.3570163 3177:0.27002597 3178:0.45419937 3181:1.3373322 3183:1.2271671 3187:0.28571704 3195:6.7177191 3196:1.0955336 3202:0.83187288 3206:1.7191949 3207:2.6544247 3210:0.31237242 3216:0.42525893 3237:0.16232014 3245:0.063255578 3252:1.5400543 3253:1.2764004 3256:1.146597 3257:1.2721306 3260:2.1116819 3267:1.2473339 3272:0.48773545 3275:1.4688743 3277:2.3203022 3280:0.8143301 3286:5.6302032 3289:2.2550988 3295:0.86762154 3296:0.4342438 3299:0.64572406 3300:0.93713462 3306:1.4410129 3312:1.0556118 3316:0.4383117 3321:0.26267621 3328:1.0582085 3341:5.0117788 3344:1.9129586 3351:0.34580898 3352:0.76702237 3361:3.7153893 3364:0.045591954 3366:0.4210858 3371:1.494372 3379:2.6504319 3382:0.12227809 3387:2.3177958 3394:1.1610613 3395:0.4811644 3396:0.67742729 3400:0.81664622 3412:0.57715386 3413:1.536786 3424:4.3484311 3441:0.69154811 3442:1.0446004 3450:0.28622457 3460:0.20747884 3469:0.39726189 3471:2.516829 3480:0.75672317 3482:2.9185312 3503:0.15977637 3504:1.2908137 3509:0.13342634 3512:1.8372765 3513:0.015595555 3527:1.1990263 3529:0.44206345 3536:2.1770132 3537:5.5661631 3539:3.3892243 3543:0.33181444 3548:1.5310082 3549:0.42001325 3552:1.1822895 3556:0.73806638 3561:1.2718766 3562:0.10196841 3563:0.47334537 3576:2.5274065 3577:4.1375017 3580:3.3915675 3582:0.72129047 3584:1.4943563 3588:5.5154324 3595:0.093357265 3599:1.0634439 3602:1.0764863 3608:0.98286426 3611:2.4457064 3612:2.0073879 3629:2.8932576 3631:0.44903603 3635:1.2214863 3648:1.6686745 3653:0.33907023 3658:1.7212827 3659:1.5293064 3665:0.15161338 3666:2.5102096 3671:0.19099165 3672:0.46152201 3676:0.99275142 3680:0.2611517 3684:0.19855329 3685:1.6718718 3690:1.6894097 3695:3.2062402 3696:1.9514861 3712:1.7553509 3720:0.78685641 3722:0.33352044 3724:2.1696439 3729:2.668498 3734:1.703281 3737:1.0906342 3746:2.2419844 3748:2.3004322 3752:2.9571433 3760:1.2536621 3762:0.20048508 3766:3.8539581 3771:0.50539333 3785:4.059351 3786:1.2621419 3791:0.52301991 3793:0.046694856 3796:4.8408337 3797:1.4200203 3803:0.80082583 3808:5.6759357 3810:0.31186426 3814:2.7346711 3815:1.7324698 3819:1.0728981 3824:3.3866301 3825:1.4558041 3829:0.39035803 3837:1.1369731 3839:3.2087815 3845:1.6886697 3847:2.4635947 3848:5.3216567 3851:2.6787126 3855:1.3511031 3865:1.0507245 3871:0.41512716 3872:3.1939874 3875:5.4689636 3880:0.052267373 3881:1.2974174 3887:0.17772105 3888:1.4555459 3889:4.1125536 3893:3.619916 3897:0.62673283 3915:2.0578034 3923:1.4117506 3929:0.31476077 3935:5.1014886 3942:1.6181453 3947:0.98673218 3949:0.13716689 3957:1.5246786 3963:1.2132733 3968:2.0167801 3974:0.45599169 3975:0.91085827 3978:0.43295872 3982:3.7824185 3985:1.2320422 3986:1.4443765 3988:0.68236613 3993:1.0783014 3994:2.9921908 4010:1.1584933 4013:1.2708706 4016:3.3656564 4018:2.2557001 4020:0.082643524 4033:0.90604627 4036:1.2908753 4038:2.4757285 4041:3.9612503 4043:1.2454506 4044:1.21545 4045:1.3904386 4056:2.2078393 4059:3.8467174 4067:1.5523463 4070:0.1955007 4073:0.14470106 4074:4.5824075 4077:0.27453205 4080:2.7275412 4082:0.069925725 4084:0.18160781 4085:3.3625207 4091:1.3985717 4092:5.4743505 4093:2.254781 4096:0.13918848
1 10:1.7132492 14:6.2554231 19:0.78754997 27:0.028336197 36:1.3498986 39:2.8484943 44:0.12515569 55:0.38769057 60:2.5661843 65:2.5209134 80:3.3981309 91:0.7848146 93:0.77418792 123:2.4955332 125:4.441216 129:0.30011514 133:1.3871949 138:0.4278571 143:2.1056557 147:0.59802014 157:0.45720744 161:0.6752342 166:1.9598757 167:1.3921368 170:0.93262082 179:0.64730567 187:4.3138461 196:1.5250793 197:3.2675381 200:5.6111574 210:4.0972891 211:3.6388979 216:0.77415651 217:1.7795236 220:0.5697825 224:1.207716 229:2.3426793 234:2.8172216 240:1.6297467 242:0.23012239 244:0.36781955 247:6.3926291 255:3.5843456 258:1.5700305 260:1.2839957 266:3.2366335 272:1.346552 277:4.1421204 284:0.39938533 289:3.0801797 292:0.78633082 297:0.34769922 299:1.5883286 303:0.94474399 306:7.7381611 315:1.7566804 324:3.3433726 326:1.1814474 335:2.3223977 341:0.58622974 353:0.68092811 359:5.1645985 371:1.6466597 378:0.36447054 381:3.0438788 400:2.6663287 401:0.24355574 403:2.6068611 424:4.3006177 428:1.3144548 431:0.022337422 432:5.2949367 439:0.16372409 442:4.9761629 444:2.5581272 445:0.070947945 455:3.306253 459:0.38433436 468:0.31388667 473:0.54852194 481:0.22776413 484:0.71824831 487:0.82777053 496:0.048187137 509:0.63956523 518:0.82374889 521:1.0461419 524:5.6355786 526:2.1679602 530:0.15205729 537:0.71607864 545:2.7478981 548:4.2081356 555:1.7044791 563:0.018303839 567:1.1032676 580:0.44573069 583:1.7179549 586:0.2459992 592:5.9079576 593:1.1818309 601:2.3241704 606:0.56436568 614:3.0131841 626:0.25829199 635:1.8080537 636:1.0744394 638:1.3000698 639:1.9447472 644:0.91992813 657:3.4778929 660:1.2822278 662:3.6827581 664:2.7158298 670:3.4980044 675:0.92189014 679:1.4306715 681:1.3540335 684:1.4187423 687:2.748899 688:3.1714692 698:0.005407691 704:2.7124844 705:4.6925459 706:2.3979764 711:5.7704329 721:0.62492156 729:0.45641208 732:3.2752731 738:2.4470119 741:1.5297089 755:1.8612056 757:2.8155537 759:0.14300039 763:0.016450904 765:0.4712992 771:2.7289901 777:1.2612064 785:3.358669 788:2.1236923 789:1.9753249 795:0.62882584 796:0.23938629 798:4.2703471 803:0.71023184 817:1.4153744 820:1.1754159 822:2.057493 823:0.54896784 827:0.25839269 834:2.0930569 835:5.0925245 843:0.40397593 848:5.689364 857:4.5281515 863:2.5737767 865:1.6969309 872:0.82494223 880:0.65007448 889:3.0700393 895:1.1052965 902:0.17890856 904:0.29973879 908:4.591434 912:0.62208688 913:0.012077302 915:2.0536544 930:1.2769396 931:0.14319229 943:4.0592442 945:1.1334034 957:1.2466488 966:1.9539515 967:3.1070406 971:0.89354479 974:1.8676643 975:4.2470388 976:0.59424108 979:2.6002851 987:4.1682162 999:1.0244474 1004:0.51263362 1014:0.11709094 1032:4.8652816 1043:1.8514382 1047:2.7987607 1051:0.036790252 1054:0.043774366 1063:0.57140315 1066:0.43513203 1070:0.54840481 1084:4.3334236 1095:3.1710722 1096:5.3029547 1106:2.3168983 1110:1.5639206 1111:0.58183825 1113:3.229229 1135:0.28701234 1136:1.2895467 1138:3.1466002 1142:0.28335175 1143:0.10191077 1147:3.4147308 1150:2.0469687 1165:3.946085 1167:1.0031958 1168:2.5117607 1170:0.68369013 1173:1.0812967 1176:3.7480245 1180:1.1403866 1183:7.1877332 1184:1.7667615 1187:4.2364507 1188:2.8396795 1189:1.7098453 1200:4.4573164 1203:0.5927633 1208:1.8673439 1217:2.5931537 1219:0.39887565 1223:6.2995377 1226:2.3429735 1240:0.79910034 1241:0.49438038 1243:0.73963749 1253:4.1519814 1259:0.74865216 1269:1.7862966 1272:1.5128314 1285:1.6803211 1286:2.8889709 1291:2.0236135 1295:2.4696934 1297:0.19269189 1302:3.4203033 1304:1.2877499 1305:3.5386426 1308:0.086535469 1310:1.6371522 1314:0.86389643 1318:0.26751959 1319:3.9425147 1329:2.3388472 1332:2.2593205 1336:2.2172103 1341:5.1541743 1342:0.35549715 1345:3.0753047 1346:0.76913166 1359:1.7167542 1368:4.8078213 1372:3.399858 1383:2.2116938 1386:0.45228127 1392:1.8941488 1401:0.20911461 1402:1.599182 1406:5.4096985 1407:0.63346428 1409:3.4119201 1417:0.02762863 1430:0.56318307 1444:1.7196469 1447:0.2378411 1451:5.70785 1456:1.2441611 1464:0.91078269 1472:3.4401095 1473:0.24036686 1476:0.56422794 1478:0.041030228 1479:0.81778324 1484:3.297513 1488:0.12192185 1497:2.49014 1504:0.060317025 1511:0.51125288 1526:0.12384596 1544:2.0259025 1546:1.3260417 1550:1.9007697 1554:3.1366374 1555:3.1404982 1556:3.3843484 1557:1.1620501 1565:1.008338 1569:1.2844926 1574:2.6771612 1580:2.1429811 1584:0.96048498 1585:4.3706632 1587:1.2036856 1588:4.1661916 1592:5.8290224 1593:0.88950515 1594:0.017187804 1600:0.81999898 1602:2.0084608 1604:1.2309794 1610:0.35665044 1612:0.13213962 1617:1.3421152 1622:0.6448046 1629:0.73495817 1633:1.1629417 1638:0.34371004 1661:1.2677779 1675:5.0521474 1677:2.9392962 1678:3.5206122 1679:1.0596671 1683:0.58588576 1688:0.81515598 1690:0.20740439 1697:0.54931062 1701:1.5033513 1708:2.6152964 1711:4.5230384 1713:0.61877918 1720:4.2280273 1726:6.1292472 1727:0.62515867 1734:2.860657 1739:3.4797544 1753:0.16901487 1761:0.59413952 1762:0.71586049 1773:1.2906251 1774:0.91190583 1777:2.1004899 1780:1.2934388 1792:0.30262777 1795:0.25715026 1799:2.5096133 1802:2.526648 1806:0.099041134 1813:4.2734456 1815:2.2537949 1822:0.13464828 1829:0.0127334 1832:2.4527311 1842:1.132705 1846:3.1790199 1852:1.7853678 1854:3.3432779 1860:2.1012962 1863:4.2463388 1872:1.2873296 1880:1.3111433 1885:0.47161201 1896:2.2204318 1900:3.185199 1904:2.6658351 1905:0.68597537 1921:7.2141752 1928:1.893474 1938:1.8123345 1943:2.5723779 1953:3.4672763 1956:4.0393519 1960:2.0399215 1964:1.0209674 1973:1.9891534 1975:1.3500196 1980:0.00049548037 1981:2.4285626 1987:0.48535681 1990:4.8573995 2003:2.6576786 2004:2.3260231 2015:0.68347555 2016:3.4690428 2019:1.9306438 2024:0.22186978 2030:2.7425756 2031:4.2001624 2043:1.3022735 2045:2.6423335 2053:2.4795518 2058:1.0327201 2060:0.80425656 2065:0.76963758 2070:0.59545815 2071:1.5207473 2091:9.8581581 2094:1.4438391 2099:0.18079424 2101:1.3958461 2103:0.64596766 2107:2.5450399 2136:1.8161625 2137:2.0477235 2141:2.2739935 2144:1.036064 2148:0.14689407 2162:1.335556 2187:0.55922312 2189:2.6654558 2190:3.5488923 2195:1.2741376 2199:0.63207304 2200:1.4342654 2201:1.236529 2222:2.0295217 2223:1.7112129 2225:3.9338799 2236:7.3921704 2242:4.154191 2249:1.284622 2254:1.5558857 2255:0.32934305 2257:5.9501319 2259:2.1967335 2262:4.9305639 2265:1.4669914 2271:5.6640778 2274:4.0107336 2280:1.2915525 2283:1.5427524 2287:1.4846299 2290:1.7731729 2302:1.1814269 2311:6.6934848 2315:4.6335564 2329:3.3654504 2338:2.6851649 2340:2.1052606 2343:2.9835434 2344:2.2434018 2348:1.6042926 2360:4.2622042 2372:0.9672085 2374:0.1142211 2377:0.10072333 2383:4.9511852 2386:1.348406 2393:7.7066445 2400:0.80091572 2406:0.52697515 2414:1.9541886 2416:2.209038 2417:1.6577805 2425:0.50965345 2428:3.4530702 2434:1.3736925 2435:2.6831288 2440:2.8814497 2441:0.89240587 2444:5.237226 2445:0.6073038 2457:2.0365393 2459:0.51326942 2464:0.52959561 2467:2.7935162 2470:0.0021964908 2471:4.3238039 2485:1.1373135 2486:1.2867074 2497:1.2697084 2505:2.7798674 2506:2.3303082 2507:0.73260725 2520:1.8391758 2526:0.56821942 2528:6.2067728 2531:0.42292893 2534:5.3257422 2558:4.6559615 2559:3.8893366 2563:3.653863 2568:6.8547006 2572:1.7327287 2574:0.014538914 2577:3.3671727 2591:1.6302074 2594:2.0132298 2598:1.7559121 2603:2.2991762 2604:0.62075508 2613:2.6106212 2614:2.5484025 2625:0.8073405 2626:3.2522764 2627:1.3299298 2629:0.56843579 2637:3.866297 2645:0.26443827 2649:1.1553539 2655:0.80854833 2657:1.8084905 2659:1.7855695 2667:0.6570735 2685:4.3085198 2691:3.7197378 2692:1.9691232 2711:2.4067419 2715:3.3645561 2718:1.0234294 2719:1.3378651 2725:2.6402738 2726:0.054143399 2727:1.2310481 2740:1.2360853 2754:1.2549055 2759:3.8335145 2761:0.23402101 2763:1.8869869 2766:1.9539247 2773:1.4250406 2777:1.8377087 2784:1.0162662 2804:1.5379097 2808:1.3842275 2811:0.98410082 2814:2.5537355 2816:2.0029082 2819:1.6399477 2824:1.4707004 2826:0.85541946 2834:0.068281591 2836:3.856952 2841:3.4331019 2842:1.8267591 2844:1.753859 2869:2.195662 2874:2.4463632 2884:0.40043691 2887:0.047535509 2889:1.02037 2894:3.9406416 2895:4.9446611 2896:6.6486511 2901:0.26593608 2902:0.46244353 2907:5.0820861 2908:1.631685 2910:0.43454012 2913:0.63779056 2914:1.1715875 2918:7.4604907 2920:0.03760618 2921:1.3716011 2928:0.39744425 2930:1.5973577 2939:2.682174 2940:0.090723768 2944:1.2484239 2946:3.4105341 2956:1.4369286 2957:2.655679 2963:0.545699 2966:3.8538697 2971:1.9094843 2977:0.67120421 2991:0.16376066 2994:0.41379195 2995:0.91560149 2996:0.14540574 3007:0.19423465 3010:0.25078869 3012:0.46689984 3014:0.038245648 3015:0.96615028 3020:0.63933539 3022:5.9577274 3024:2.6898427 3035:0.87670881 3039:1.4398834 3053:1.5120167 3066:2.5509183 3068:0.19474363 3075:1.44824 3079:4.2965841 3080:2.2244031 3088:2.5316978 3105:0.30692822 3119:0.35750416 3124:1.0190786 3136:1.9320338 3138:0.30633891 3144:0.079053521 3145:0.020942703 3159:0.037946612 3164:0.84973294 3171:0.18824184 3177:2.9182284 3178:0.082890198 3195:1.4886136 3206:0.50095963 3216:0.43146214 3217:1.2538854 3228:0.81225163 3242:1.4580368 3247:0.30587578 3249:2.1359844 3251:0.81376493 3252:3.2213762 3260:2.3683541 3264:2.0227885 3268:2.6391585 3275:0.86089194 3276:2.0714147 3280:0.2824049 3282:0.02753602 3286:5.8921504 3289:2.6822629 3293:0.94844329 3296:0.09431839 3299:0.96009719 3322:0.43428224 3328:0.62187994 3341:5.2741423 3351:0.54734087 3359:0.6549105 3361:1.0069672 3373:0.18077549 3379:0.67608941 3382:0.23231494 3387:0.83536202 3394:4.924077 3395:1.749845 3397:2.7475343 3402:0.51419383 3413:2.7855167 3416:0.14725912 3424:1.8180707 3427:0.63929731 3436:0.60495389 3445:2.5000908 3448:5.9992514 3468:1.8659613 3482:0.4401831 3491:4.1689668 3501:0.26915023 3503:1.6103764 3504:3.081882 3512:6.508544 3517:0.38884565 3529:0.82552159 3536:1.5858989 3537:6.3731523 3541:0.78931689 3548:0.74736214 3551:1.2263832 3552:2.7912035 3576:1.9100235 3577:1.382163 3580:3.476033 3582:5.3498459 3584:2.1981184 3587:0.77150023 3588:5.3723264 3601:2.9369054 3602:0.90843642 3604:1.0169277 3608:2.2933812 3611:4.1532383 3612:4.542438 3629:0.60316819 3631:2.1765466 3632:1.7525796 3635:2.6655715 3636:1.6692529 3639:2.7592354 3649:3.311502 3653:0.99041653 3659:1.8758073 3660:0.19628322 3666:0.92406493 3670:5.3178577 3676:2.9403489 3685:1.5294547 3690:2.213403 3696:3.5093567 3699:0.56633937 3702:0.043366104 3703:2.348398 3712:1.0393533 3720:3.0545495 3721:0.7242105 3732:1.1790344 3737:3.7862773 3746:3.9043784 3748:2.5593331 3751:1.4839662 3752:0.069270328 3753:0.89649749 3760:2.3553119 3766:2.1127467 3767:0.96692121 3771:1.1707199 3785:0.81293988 3786:0.83763474 3793:2.4312716 3797:2.5482192 3803:0.29518136 3808:2.5246673 3810:0.86386919 3815:2.4285812 3824:6.2710814 3831:0.056520764 3837:3.2973368 3839:3.4841776 3845:2.5941513 3846:1.0301487 3847:1.4822894 3848:8.4730778 3851:1.3045623 3865:1.003967 3867:0.040925711 3872:4.9415627 3875:5.0701299 3880:1.1963511 3881:3.5390272 3889:6.9019594 3893:6.3735466 3899:0.32539946 3907:0.035007626 3915:1.8593498 3923:3.2408845 3935:2.6179771 3936:1.0617568 3949:4.6165619 3953:2.3898802 3955:0.11518797 3957:4.9621391 3967:0.60398382 3968:0.64607674 3974:0.13333198 3982:2.8662684 3985:1.0460926 3986:0.13750096 3993:0.70563269 4002:0.12308304 4010:2.2211952 4013:0.69860315 4015:0.27166337 4016:1.803228 4018:8.8473053 4021:3.1565394 4025:5.2277632 4028:4.3545928 4033:1.4922833 4036:4.1604691 4038:3.7555647 4041:4.6811976 4044:0.20450869 4054:1.1632198 4056:3.3462439 4059:1.5590221 4067:2.2589114 4074:4.1532817 4077:0.66405094 4079:0.93258953 4080:1.081794 4084:2.9812505 4089:1.3411586 4091:0.59652543 4092:4.0022216
0.456388386042472 3:0.070779562 9:0.048338667 14:0.87559664 19:1.1117166 27:1.4769366 53:0.015247971 58:1.019872 60:2.0381916 68:2.1098843 79:1.3016737 105:0.761145 110:2.6853483 113:0.94436741 114:1.3693553 122:0.10144547 123:2.9858832 125:4.6447353 129:1.4644341 138:1.4151022 140:0.83299577 143:0.30769175 154:2.4694183 159:1.0313921 167:0.054314166 180:1.406725 185:2.0355606 202:1.1044596 209:1.4436214 219:0.012700826 221:1.6996188 232:1.3207002 234:0.50039214 238:1.4780172 240:1.5493073 244:1.6355027 252:0.95263326 258:4.6525393 269:0.35146683 275:0.67218924 276:1.1558952 277:4.3350792 278:1.4578145 282:0.20696211 283:1.3558314 288:3.3192978 290:0.44792995 292:1.3885374 298:2.7698801 300:1.2098758 301:1.5234429 302:0.76433194 306:0.85751677 314:2.280798 321:2.0079794 324:2.780216 326:2.206542 333:0.48823655 337:0.26152304 338:0.40629193 339:1.0560943 340:0.66120994 341:1.5224671 347:0.1136843 348:2.6266901 349:0.39356583 350:0.1563758 351:1.3022194 364:0.82712138 365:0.097525477 371:0.42974621 378:1.0512455 379:2.5522223 387:3.2791717 397:0.49771762 399:0.98473972 401:0.67792135 421:1.3382822 428:0.25490385 431:0.64125538 432:4.6910148 439:0.071396023 442:4.0771122 448:1.1266327 455:3.2781305 458:0.49548087 459:0.91466498 468:2.1109655 478:0.48919713 485:1.4762197 486:0.14475742 487:2.298578 488:1.1506881 491:0.37956038 493:0.41998917 496:0.43711933 500:0.62187994 503:0.41432568 514:0.2274847 524:3.3081312 526:0.58686149 532:1.0491267 538:2.93226 544:1.8961889 545:3.0641057 546:0.66117001 548:3.3203578 555:1.774472 559:1.7314535 562:0.59319991 565:2.0030794 572:0.52741802 601:0.088056505 605:0.14066371 609:0.28089389 612:1.6809347 614:4.0033135 619:1.268645 620:2.459316 626:0.71884865 635:4.46526 639:2.5000341 642:1.2433654 670:1.511992 671:2.3734384 684:0.095501378 687:0.068027742 695:0.18190472 698:3.1464436 705:0.49590176 711:2.8609612 728:2.5358469 729:0.74467933 735:0.086766511 738:0.2594173 741:0.013466895 742:1.0887636 748:3.0550497 758:1.014264 759:1.1817951 763:1.1873034 764:1.5139596 765:0.48922321 770:0.337273 775:0.97001266 778:0.21723714 785:1.3487606 788:0.3181774 789:0.82603544 791:0.27387518 792:0.635984 795:0.82631707 798:1.2714412 814:3.8921709 817:4.2688203 820:1.1104681 825:0.14488098 828:0.11335042 834:0.48368591 839:0.38385898 840:0.45078242 854:1.92466 857:0.025341019 858:1.6350787 865:1.1844192 871:1.7577121 874:2.0196242 876:0.41374421 883:1.0236437 887:0.078557283 892:4.2488294 894:0.61374027 895:0.036417846 896:4.400176 904:1.5257226 908:4.4086499 912:0.70437407 915:1.3685483 918:1.0840988 921:1.7472372 922:0.36230206 927:1.5166963 928:0.54500914 938:0.17231938 942:1.1172271 945:4.480495 946:1.1357578 953:1.5864943 957:2.3364933 961:2.7218752 966:2.5146346 968:0.90070522 971:2.4627237 974:3.4404817 976:4.1831956 979:4.3372507 987:1.0683651 988:0.38947701 991:1.0433807 995:0.2480523 997:1.8858434 999:1.9890125 1001:1.9981757 1008:0.12754554 1010:0.767524 1013:0.0093302131 1014:1.7693183 1021:2.2859468 1024:0.29717767 1043:2.2751992 1047:2.8412852 1051:1.2778428 1056:0.3457703 1059:1.3951768 1062:0.034471154 1065:0.33140355 1070:0.05638051 1075:2.2353799 1077:4.5627518 1092:1.1670382 1105:0.72110099 1107:0.84877455 1110:0.5560289 1111:2.9034069 1113:1.6722422 1117:0.0061482787 1122:0.86584044 1130:0.17384988 1153:0.064967394 1157:0.48578811 1165:2.1563134 1168:0.12627363 1178:2.2088964 1184:1.8289928 1191:0.77167261 1196:1.1793947 1203:0.28457311 1206:1.3965341 1208:3.2545164 1213:0.9518249 1215:0.24380365 1216:0.28438336 1217:0.71804637 1219:0.95783114 1221:0.38144147 1223:2.5724258 1226:2.4514222 1227:2.0811982 1235:1.9843361 1237:1.692571 1242:1.2700771 1251:2.0499301 1252:1.7859808 1264:1.9443915 1269:0.13496989 1270:1.2145101 1279:2.7551355 1281:3.2099872 1284:0.50748873 1286:1.057194 1295:1.6044753 1297:0.24123184 1302:3.4848762 1305:1.8341584 1306:0.63109362 1313:2.6825786 1314:0.3536272 1319:1.5918607 1332:3.0485294 1333:1.7160134 1335:3.3908656 1337:2.4470501 1341:4.4792004 1345:0.38037479 1347:1.5029577 1350:0.045985162 1352:2.0369987 1355:1.256586 1357:1.0051887 1363:2.1533685 1368:1.6577559 1369:3.7828231 1372:0.26899201 1377:0.030962288 1385:0.65713668 1399:0.57532752 1401:1.6289878 1405:0.0068190098 1406:4.7435455 1408:0.18216974 1409:2.5977654 1410:0.45843261 1411:0.84852409 1416:0.48803186 1425:0.28057751 1426:3.2932391 1432:0.064137876 1437:1.1743034 1440:0.095792025 1448:1.884344 1450:1.0744984 1452:0.62152183 1456:3.140362 1465:1.2618196 1467:1.2906449 1471:1.0117196 1479:0.65892386 1483:0.33192176 1484:1.9576142 1486:1.4790194 1487:1.1486695 1489:1.6453192 1490:1.9164391 1511:0.28699058 1519:0.039477274 1520:0.66793579 1522:2.8383303 1523:6.3278465 1526:0.53753555 1539:0.32153255 1544:0.74465203 1548:0.16677481 1550:0.15118286 1555:1.4504572 1556:1.5080726 1567:0.73060513 1574:0.90743279 1586:1.1464244 1588:0.35123053 1590:3.1828113 1596:0.2782191 1602:3.4939289 1604:1.2025938 1605:0.094460487 1610:0.1666151 1613:1.5114899 1617:6.7861943 1618:1.4954287 1622:0.70707452 1625:1.7620704 1627:0.31448147 1628:2.6997142 1633:2.0412195 1648:1.0569061 1653:1.2634809 1654:1.3097246 1661:4.2880111 1665:0.49584112 1667:0.47934175 1670:2.5130479 1675:1.0806664 1676:2.360003 1677:0.237358 1678:4.8393822 1683:0.38706353 1689:0.29563785 1690:1.8806422 1699:0.8302002 1701:4.3286839 1704:1.1854612 1709:0.89737594 1712:0.023830533 1716:0.12856531 1718:1.6152825 1726:2.8251595 1727:0.24403401 1738:2.7683251 1742:0.47465086 1750:0.6800853 1758:0.28592324 1761:0.41800231 1762:0.016734272 1766:1.2889614 1773:0.28098238 1777:2.6027174 1782:1.610226 1786:0.095468044 1795:2.31936 1798:0.43270105 1804:2.9234545 1806:1.7947931 1817:2.4327033 1825:2.6760974 1842:2.3302779 1843:0.55993199 1848:0.60265642 1854:3.3785768 1857:0.79477596 1860:2.2083533 1861:0.85194933 1864:1.9696544 1872:0.9357003 1884:1.6046295 1891:3.4090652 1897:2.0732839 1905:1.6799119 1908:0.038577035 1918:0.34261876 1921:1.6156327 1928:0.91760135 1935:0.33258313 1937:2.7715158 1940:1.0159502 1953:0.18075404 1956:1.2817508 1958:1.6698588 1960:1.6243312 1966:1.1008246 1972:3.6798387 1974:1.9959393 1978:0.49455243 1980:0.050282884 1990:0.58705533 1991:0.06358245 1999:1.2186877 2004:5.2878513 2014:0.4827736 2015:1.017444 2017:0.1165874 2019:1.441942 2021:3.2072384 2024:1.1645658 2026:0.25918359 2030:4.3009839 2031:0.64723235 2032:2.3816655 2038:1.2631011 2045:1.5173469 2047:0.53013527 2051:2.0237184 2055:2.5064151 2057:3.8387871 2070:1.7899803 2082:1.8851683 2087:0.052381009 2094:1.4105362 2096:2.4262609 2099:0.62305224 2101:3.7529478 2102:3.0436051 2110:1.3028007 2113:2.6018832 2115:0.43031779 2126:0.059834771 2130:0.092685282 2132:0.0012139678 2135:1.3775218 2137:0.64227152 2144:1.1278406 2162:1.0894002 2164:1.8267552 2168:0.046134636 2170:0.1632285 2177:5.7640152 2189:0.13608187 2199:0.68181992 2202:0.85262764 2206:0.28634942 2223:0.34700003 2226:0.083094776 2229:1.1463946 2236:1.3417796 2239:0.55311006 2241:1.0746989 2249:0.015952066 2251:0.17828308 2253:4.1077933 2254:0.32959947 2257:0.34484091 2259:2.9878576 2262:3.218106 2271:4.1006064 2278:1.1971388 2282:0.60565782 2286:0.41705105 2290:0.80283886 2293:0.62031758 2299:0.17891821 2305:0.36910158 2311:1.1378951 2315:1.7117524 2316:1.885954 2329:3.001605 2338:0.073089361 2340:0.58944136 2343:2.2313192 2344:0.58603185 2355:0.93908882 2364:1.8495998 2372:1.6465917 2374:0.27826446 2378:0.023034394 2383:0.75466728 2390:0.57090265 2393:0.95043278 2400:0.82294333 2414:0.65916455 2417:1.3816354 2419:0.10940699 2423:2.324544 2424:1.538729 2427:0.98804176 2432:2.5935748 2433:0.81718707 2434:2.7207892 2435:1.6350477 2439:1.2391114 2440:3.9325953 2441:0.27213904 2444:0.98940551 2453:0.17938182 2460:0.21791169 2464:1.5268893 2485:0.72673863 2487:0.11097163 2489:2.3223329 2490:0.18282717 2503:1.9261889 2505:1.9358923 2507:3.3805115 2508:3.1221142 2509:1.628933 2514:1.5745329 2520:0.29858777 2521:3.0624485 2526:1.9858027 2530:0.57524353 2531:1.333223 2545:0.30797005 2551:0.44433677 2561:2.6427808 2563:2.6537845 2576:5.8683624 2577:5.0559936 2583:0.20934369 2590:1.1601367 2594:3.0022984 2600:1.1448762 2602:0.48981977 2603:1.1872187 2604:2.4068873 2610:0.062773108 2611:0.49700138 2623:4.8506713 2625:0.24619791 2628:1.0330682 2639:0.59534496 2649:1.180136 2650:0.097033963 2657:3.5495257 2667:1.1483148 2676:0.14425808 2679:1.5942373 2685:0.35370952 2688:0.088742256 2689:0.65984434 2692:0.54465961 2702:0.11962026 2708:4.1350298 2718:2.6577632 2719:1.4498878 2721:1.4055436 2726:0.48954093 2727:0.39646408 2740:1.3755933 2743:0.49440277 2759:2.4403496 2763:0.51326835 2775:3.0759156 2785:1.6144253 2787:3.0271425 2792:1.5757375 2811:1.917099 2817:0.44262129 2825:1.1668348 2826:0.36828908 2834:1.4057658 2836:2.7383859 2838:0.66720957 2841:4.7852125 2843:1.0873753 2853:2.8578668 2856:1.9028299 2865:1.2007551 2867:2.8335037 2874:1.3800371 2881:0.73745066 2888:1.9602669 2894:3.4010501 2895:0.16246936 2896:1.7287128 2899:0.072054863 2903:1.6433156 2907:2.0198526 2913:2.4362915 2915:0.26750892 2917:0.29987374 2918:0.36447293 2919:0.21858782 2920:3.0141692 2921:2.1711247 2925:1.4287733 2930:0.36780772 2936:2.2116475 2941:0.53672963 2944:2.4650705 2945:1.2111758 2946:1.0996315 2949:1.5262923 2950:1.1430674 2953:0.77083689 2958:1.1067529 2962:1.665769 2963:0.6456688 2966:1.3427662 2985:0.86208773 2990:0.52991587 2993:1.8847764 2994:1.5901928 2995:2.1792531 2996:1.6046572 2997:2.2237926 3010:0.31654406 3021:0.53593975 3024:1.6694045 3032:0.10718908 3036:0.74631512 3041:0.09414719 3042:1.1392467 3043:0.482714 3049:0.53998083 3050:3.7135711 3051:3.270797 3057:1.1751144 3068:4.2652864 3070:2.1796081 3072:0.062173143 3075:1.6227005 3080:3.7008452 3081:0.19305795 3085:1.359751 3094:2.687691 3095:0.54948485 3105:2.5475576 3107:4.1453867 3113:0.23322064 3119:0.98628628 3139:1.2535213 3141:0.78873247 3144:1.9558825 3145:2.6084003 3146:1.8690739 3162:0.095707856 3163:4.1576791 3170:3.562464 3171:0.01951623 3177:1.6949732 3179:1.4894211 3183:0.24046881 3190:0.71838343 3195:2.0719824 3200:1.3992255 3207:1.3662287 3215:0.22196412 3218:0.61717796 3228:0.91029239 3237:0.60142112 3242:1.4161496 3246:0.71581793 3253:0.058096379 3257:0.87397242 3268:1.8517015 3269:0.090978414 3275:2.8114028 3276:0.080844045 3277:2.5942557 3282:0.52199578 3286:3.9723682 3287:0.035700291 3291:1.6514803 3294:0.29906303 3296:4.3017936 3298:1.9651148 3306:1.8648711 3315:0.68499851 3316:1.453313 3332:0.69642633 3335:2.4108782 3341:3.5579066 3344:0.72814429 3347:0.91788292 3348:1.3792486 3349:2.4778647 3364:0.81119442 3366:2.1145821 3367:2.5691574 3371:1.1727778 3387:3.103477 3395:0.2835947 3400:0.046584934 3402:0.65871483 3404:1.1188768 3413:1.7796338 3416:1.1128532 3424:2.8096504 3429:1.1807293 3431:0.555673 3436:0.048729599 3442:0.30245721 3443:0.72338033 3448:1.4603021 3460:0.87367702 3463:0.24395691 3465:0.76603264 3468:4.2062407 3471:2.3434701 3478:2.2341516 3485:0.53513235 3486:1.938629 3493:0.71916485 3496:0.82130671 3501:0.70324594 3504:3.8059726 3508:0.64467943 3509:0.65578181 3512:1.1379573 3516:2.622756 3536:1.1979151 3537:5.1844754 3540:0.10547945 3548:1.4463468 3549:0.44476974 3552:0.48894793 3555:0.15836763 3556:2.0955007 3557:0.36145002 3561:2.884985 3576:0.47495079 3577:0.073491067 3578:0.30704859 3582:3.439292 3587:1.0915675 3588:2.0289195 3589:0.31903529 3591:0.024316728 3601:0.41715127 3602:3.8214712 3608:0.91976285 3611:0.14300789 3621:2.1804323 3626:1.300867 3630:0.27093434 3631:1.6010923 3636:3.7940409 3642:0.14727274 3650:0.20617588 3652:2.0743687 3666:0.40005991 3667:0.29031208 3672:2.8280854 3676:0.22028083 3682:0.73559213 3683:0.48086646 3689:0.28007561 3690:0.77257901 3692:0.95486259 3704:0.69869733 3705:1.3385301 3710:0.48481244 3712:0.66095865 3720:1.9727883 3721:0.16085792 3729:1.005037 3739:2.042305 3741:0.82291389 3744:1.6559422 3751:0.81117201 3756:0.54850531 3758:0.1056194 3759:0.1591824 3762:0.50780082 3765:1.426398 3767:1.0454837 3774:0.62691057 3779:0.050531387 3785:2.7975519 3794:1.8551404 3795:1.7769809 3796:2.9360142 3808:2.3491516 3811:0.059876412 3818:1.4713066 3819:0.12842876 3824:0.72390163 3835:1.9199566 3837:2.0133679 3844:0.63217551 3845:2.6030648 3846:0.059859067 3848:1.776118 3855:0.033197224 3857:0.0089476556 3860:0.9806813 3864:0.033850156 3866:0.2272132 3867:0.34038162 3869:2.0993934 3872:3.8288631 3875:1.351282 3880:0.88114834 3881:4.0448074 3886:2.0109947 3888:0.877949 3889:1.2038872 3893:3.2814765 3910:2.3465204 3913:1.2288139 3915:0.37905729 3918:1.6438478 3919:1.2007833 3923:2.9142461 3935:0.68140787 3936:0.50724405 3941:1.5288291 3957:4.4300251 3962:0.62072384 3970:0.10734391 3979:1.9230427 3982:1.1785471 4000:0.6861704 4004:0.8115555 4012:2.1569974 4015:0.80807877 4016:4.0914764 4018:0.94930971 4021:0.9234876 4024:0.037744522 4033:1.8985636 4036:3.8115737 4038:1.3667017 4040:0.59844482 4042:0.93609047 4054:0.081027985 4055:0.52670377 4059:0.1728348 4061:0.65887064 4067:1.5578065 4069:0.33126354 4070:0.16552916 4074:5.7507844 4080:0.089865446 4081:0.60455978 4082:0.88428038 4084:2.8464937 4085:1.4829036 4089:2.8141727 4091:0.88664532 4092:2.0979571 4093:2.0680876
